%YAML:1.0
opencv_ml_svm:
   format: 3
   svmType: C_SVC
   kernel:
      type: RBF
      gamma: 5.3830000000000000e+00
   C: 2.6699999999999999e+00
   term_criteria: { epsilon:1.1920928955078125e-07, iterations:1000 }
   var_count: 64
   class_count: 10
   class_labels: !!opencv-matrix
      rows: 10
      cols: 1
      dt: i
      data: [ 0, 1, 2, 3, 4, 5, 6, 7, 8, 9 ]
   sv_total: 1934
   support_vectors:
      - [ 1.02413706e-01, 1.63913727e-01, 9.09211412e-02, 1.40197814e-01,
          5.11615463e-02, 1.96519539e-01, 2.33648583e-01, 0., 0., 0., 0.,
          0., 0., 0., 2.34998345e-01, 1.43574610e-01, 2.21253693e-01, 0.,
          0., 6.39433563e-02, 0., 0., 0., 0., 0., 0., 0., 0., 0.,
          1.52089611e-01, 3.17235678e-01, 2.13780954e-01, 1.84145659e-01,
          2.27706030e-01, 1.52758703e-01, 1.25665247e-01, 1.26526788e-01,
          1.43685311e-01, 6.06011450e-02, 1.29036725e-01, 2.75957346e-01,
          1.70656890e-01, 0., 0., 0., 0., 0., 0., 4.71376814e-02, 0.,
          5.72709814e-02, 0., 0., 0., 0., 0., 4.32915151e-01,
          1.51271179e-01, 1.00399196e-01, 0., 1.39002398e-01,
          4.82275151e-02, 5.06615378e-02, 5.74941412e-02 ]
      - [ 6.05075434e-02, 1.18521057e-01, 1.69988811e-01, 1.43686265e-01,
          2.40276113e-01, 9.29277614e-02, 4.26949970e-02, 0.,
          1.26464898e-02, 4.34147054e-03, 7.28098378e-02, 1.66917905e-01,
          1.70488819e-01, 7.15347528e-02, 4.61210012e-02, 7.45505765e-02,
          2.75645051e-02, 9.57174301e-02, 1.00141160e-01, 6.78333044e-02,
          2.04186678e-01, 2.15584725e-01, 1.14864511e-02, 5.00349887e-02,
          0., 0., 0., 1.54992387e-01, 2.43188739e-01, 2.55842626e-01,
          1.29298314e-01, 1.24103203e-01, 1.44846380e-01, 1.45271495e-01,
          4.07476239e-02, 5.70055731e-02, 1.45741448e-01, 1.81669220e-01,
          1.44914761e-01, 1.43758669e-01, 1.57272488e-01, 1.06454127e-01,
          0., 0., 8.79165754e-02, 1.49371296e-01, 1.11741781e-01,
          5.75684682e-02, 7.32906535e-02, 9.05479714e-02, 1.38780236e-01,
          1.53941423e-01, 0., 4.79539149e-02, 1.95140839e-01,
          1.02133840e-01, 1.28573254e-01, 2.11655855e-01, 1.50929451e-01,
          1.62244335e-01, 1.01524323e-01, 1.65585861e-01, 6.94337338e-02,
          9.01204720e-02 ]
      - [ 7.29219243e-02, 1.02827355e-01, 9.85633433e-02, 1.48819119e-01,
          2.66170174e-01, 1.38687521e-01, 9.61976126e-03, 0., 0., 0., 0.,
          0., 2.96642274e-01, 1.66695893e-01, 1.11474156e-01,
          1.46544546e-01, 3.62788588e-01, 1.34156510e-01, 0., 0., 0., 0.,
          0., 0., 7.69237950e-02, 0., 9.14256796e-02, 0., 0., 0.,
          9.99060273e-02, 1.01635344e-01, 9.89222005e-02, 0.,
          5.40820323e-02, 2.66327739e-01, 1.33570120e-01, 1.46127656e-01,
          8.64190012e-02, 1.37917325e-01, 2.50041068e-01, 1.14360429e-01,
          0., 5.20486534e-02, 1.05799153e-01, 5.86141013e-02,
          9.11732838e-02, 1.04301035e-01, 2.21328095e-01, 0., 0.,
          2.89161205e-02, 0., 0., 0., 0., 3.84014577e-01, 2.57444441e-01,
          0., 0., 0., 0., 0., 5.62777705e-02 ]
      - [ 7.39658475e-02, 1.60084501e-01, 2.70327151e-01, 1.73054948e-01,
          0., 0., 0., 0., 3.75689641e-02, 9.99243334e-02, 1.01436608e-01,
          4.24310490e-02, 0., 0., 1.16048388e-01, 1.58701181e-01,
          1.89366221e-01, 2.13720202e-02, 0., 5.42435944e-02,
          1.51907176e-01, 1.07401893e-01, 8.91857967e-02, 5.06556146e-02,
          1.30615711e-01, 2.00369313e-01, 0., 0., 1.84904397e-01,
          2.36774698e-01, 1.38465434e-01, 1.89977810e-01, 0.,
          2.11188514e-02, 0., 1.34735644e-01, 1.70930907e-01,
          2.23958150e-01, 1.92289159e-01, 1.33166716e-01, 1.67233676e-01,
          1.00537099e-01, 0., 0., 8.75978172e-02, 1.14727952e-01,
          7.29644969e-02, 1.70490425e-02, 1.41888842e-01, 1.35893658e-01,
          8.65959600e-02, 1.33390516e-01, 4.08313647e-02, 0.,
          4.22054492e-02, 1.87206060e-01, 1.63883194e-01, 2.11047530e-01,
          2.17614189e-01, 1.56616628e-01, 1.31435081e-01, 9.81545225e-02,
          9.52212960e-02, 1.33301750e-01 ]
      - [ 1.06945992e-01, 3.30163628e-01, 6.43722862e-02, 0., 0., 0., 0.,
          0., 5.15749380e-02, 1.00509331e-01, 0., 0., 0., 0., 0., 0.,
          1.26969188e-01, 2.62051612e-01, 0., 0., 8.72945637e-02,
          1.37526840e-01, 0., 0., 9.18589681e-02, 1.38636485e-01,
          1.11305058e-01, 2.37071022e-01, 1.65284932e-01, 1.19012371e-01,
          1.10237330e-01, 1.00184567e-01, 7.36913532e-02, 1.78218961e-01,
          7.25363269e-02, 0., 1.47431895e-01, 8.84562731e-02,
          1.92165837e-01, 3.07471722e-01, 7.49456435e-02, 0.,
          1.35704562e-01, 6.21015392e-02, 8.15169811e-02, 8.74867365e-02,
          9.56778675e-02, 7.46852756e-02, 1.99438240e-02, 9.16648284e-02,
          1.02084398e-01, 0., 1.30105868e-01, 4.87434193e-02,
          2.34423339e-01, 2.08775967e-01, 1.62983432e-01, 8.20365995e-02,
          8.46639276e-02, 2.10168287e-01, 9.76652429e-02, 1.50913566e-01,
          2.24156857e-01, 1.63524628e-01 ]
      - [ 1.40262440e-01, 1.43612310e-01, 1.79375440e-01, 2.26056933e-01,
          1.07449032e-01, 9.82662588e-02, 8.13922063e-02, 8.92305449e-02,
          5.18190861e-02, 7.61662573e-02, 4.68635783e-02, 9.53253359e-02,
          0., 8.33365321e-02, 1.11161903e-01, 8.36968496e-02,
          2.71145940e-01, 9.66305956e-02, 0., 0., 0., 0., 0., 0., 0.,
          4.28812532e-03, 1.66610032e-01, 1.39600649e-01, 1.42403603e-01,
          1.83034539e-01, 1.10975184e-01, 7.35746846e-02, 0.,
          7.61098117e-02, 2.74885476e-01, 1.70459941e-01, 8.22228268e-02,
          1.11751936e-01, 1.11193225e-01, 1.01418994e-01, 2.51456201e-01,
          1.75648987e-01, 0., 1.17921598e-01, 8.73242915e-02,
          1.23838283e-01, 0., 9.51238722e-02, 2.53055662e-01,
          1.51461810e-01, 0., 0., 0., 0., 3.96977067e-02, 1.32722884e-01,
          3.68389875e-01, 2.06269905e-01, 0., 8.79724398e-02, 0.,
          5.21016791e-02, 0., 7.57451504e-02 ]
      - [ 2.82514900e-01, 1.84427410e-01, 2.14243740e-01, 7.67814443e-02,
          1.87053278e-01, 0., 0., 7.54957274e-02, 0., 7.64594451e-02, 0.,
          0., 7.15377256e-02, 8.13158303e-02, 0., 1.67375907e-01,
          2.99076378e-01, 6.11418821e-02, 0., 0., 0., 0., 0., 0.,
          2.45768353e-02, 1.27303600e-01, 0., 1.02948070e-01, 0.,
          2.23142803e-01, 2.59210140e-01, 2.17988059e-01, 7.17440620e-02,
          1.11845039e-01, 0., 0., 0., 2.57897973e-01, 2.65842944e-01,
          9.45849940e-02, 2.57588536e-01, 1.08922394e-02, 0., 0., 0., 0.,
          0., 0., 0., 0., 0., 0., 0., 0., 0., 0., 3.68290722e-01,
          2.94118434e-01, 0., 0., 0., 1.02960497e-01, 0., 0. ]
      - [ 2.15063155e-01, 3.09759676e-01, 1.11748911e-01, 1.08631581e-01,
          0., 0., 0., 0., 0., 2.14519009e-01, 1.13863289e-01,
          6.33031726e-02, 0., 0., 0., 0., 1.64686665e-01, 9.90460366e-02,
          0., 0., 1.73517287e-01, 1.15591750e-01, 0., 9.14052203e-02,
          1.47990167e-01, 3.63975912e-02, 0., 0., 2.15760916e-01,
          1.95456013e-01, 1.61704764e-01, 1.80892900e-01, 0., 0., 0., 0.,
          1.85136929e-01, 2.57932574e-01, 1.54403284e-01, 9.32670534e-02,
          0., 9.62244719e-02, 1.27753422e-01, 1.77192330e-01,
          2.38370895e-01, 0., 0., 0., 1.69131964e-01, 0., 0., 0.,
          2.23393276e-01, 1.21985108e-01, 1.40621230e-01, 1.23213515e-01,
          1.57562733e-01, 2.21620396e-01, 1.50229707e-01, 7.80341923e-02,
          1.26309961e-01, 1.06846102e-01, 9.72113162e-02, 0. ]
      - [ 1.52154893e-01, 1.65907979e-01, 1.71685234e-01, 2.24843651e-01,
          1.78329080e-01, 1.10011995e-01, 0., 9.91926417e-02, 0.,
          9.56676081e-02, 1.07970543e-01, 1.73129469e-01, 0., 0.,
          1.54171482e-01, 1.24188498e-01, 2.93391585e-01, 1.99935928e-01,
          0., 0., 0., 0., 0., 4.87372950e-02, 8.84282216e-02, 0.,
          1.02071784e-01, 1.36739045e-01, 1.65119529e-01, 1.83504105e-01,
          9.61440057e-02, 1.08584128e-01, 8.80799890e-02, 1.33433357e-01,
          1.91248715e-01, 0., 2.07822591e-01, 2.00465158e-01,
          1.10406265e-01, 8.90321434e-02, 0., 2.38228813e-01,
          1.13656268e-01, 4.65166606e-02, 6.65759593e-02, 0., 0., 0.,
          1.31979719e-01, 0., 0., 0., 0., 0., 0., 0., 3.45824271e-01,
          2.77308524e-01, 0., 6.14305660e-02, 0., 0., 9.01309401e-02,
          1.02611765e-01 ]
      - [ 2.41047278e-01, 8.25793073e-02, 9.50197056e-02, 9.80103239e-02,
          0., 9.36086252e-02, 1.43259391e-01, 2.55158514e-01,
          9.23712924e-02, 0., 0., 0., 0., 0., 7.81193003e-03,
          1.83890611e-01, 2.20906004e-01, 2.63122059e-02, 0., 0.,
          8.75764787e-02, 0., 1.38787106e-01, 0., 0., 0., 0., 0., 0.,
          2.35698357e-01, 2.05785185e-01, 1.95746198e-01, 2.97409505e-01,
          1.35965988e-01, 1.09535731e-01, 7.78878853e-02, 1.23582184e-01,
          5.83010763e-02, 1.32799491e-01, 1.32766604e-01, 2.91573495e-01,
          2.25510988e-02, 0., 0., 0., 0., 3.22372392e-02, 0.,
          1.33476600e-01, 1.06423736e-01, 1.30503625e-01, 1.04900025e-01,
          0., 0., 1.56238601e-02, 2.25214899e-01, 2.92341530e-01,
          2.58994401e-01, 0., 1.45586804e-01, 0., 0., 1.29775271e-01,
          5.26977070e-02 ]
      - [ 1.66055843e-01, 2.38104343e-01, 2.43377537e-01, 9.50971991e-02,
          1.19376173e-02, 0., 0., 0., 0., 0., 0., 5.48907556e-02,
          4.09780331e-02, 0., 1.88750308e-02, 1.63936034e-01,
          2.84819365e-01, 2.57908162e-02, 0., 0., 0., 0., 0., 0., 0., 0.,
          0., 1.87560305e-01, 1.46892786e-01, 1.79222897e-01,
          1.51160583e-01, 1.41529024e-01, 0., 1.27656832e-02,
          7.19338879e-02, 2.34321728e-01, 1.83503300e-01, 1.24680080e-01,
          1.47293657e-01, 1.19426601e-01, 3.23291838e-01, 1.07035235e-01,
          2.98026353e-02, 0., 5.42497113e-02, 0., 0., 6.64751511e-03,
          2.27708623e-01, 0., 0., 0., 0., 0., 0., 2.22329572e-01,
          3.62996578e-01, 1.60932735e-01, 1.73136875e-01, 0.,
          1.39206812e-01, 1.14091039e-01, 6.53448254e-02, 1.04811743e-01 ]
      - [ 0., 2.37371340e-01, 2.71497011e-01, 1.58290669e-01,
          1.74170826e-02, 0., 0., 0., 0., 4.92937081e-02, 1.15658879e-01,
          0., 0., 0., 0., 0., 1.19041413e-01, 1.43725157e-01,
          1.67465314e-01, 0., 0., 0., 0., 0., 0., 2.47779507e-02,
          3.43144059e-01, 1.19854465e-01, 1.17936082e-01, 4.44443822e-02,
          1.47592023e-01, 1.05644435e-01, 1.46611452e-01, 1.07291676e-02,
          1.22272484e-01, 1.08235985e-01, 1.99989215e-01, 1.68440938e-01,
          1.25192732e-01, 2.01429322e-01, 1.40145004e-01, 2.05351174e-01,
          9.41817984e-02, 0., 0., 0., 1.17778718e-01, 9.47669595e-02,
          2.81883448e-01, 1.98056549e-01, 0., 0., 0., 0., 0.,
          9.06773433e-02, 2.17972770e-01, 2.86956787e-01, 1.49762899e-01,
          8.30617324e-02, 9.10459831e-02, 8.81107599e-02, 9.22135934e-02,
          8.53184983e-02 ]
      - [ 2.46044815e-01, 2.92189270e-01, 2.89474204e-02, 0., 0., 0., 0.,
          9.27090868e-02, 8.35426152e-02, 0., 0., 0., 0., 0., 0., 0.,
          2.36894086e-01, 7.57391080e-02, 0., 0., 0., 1.07085317e-01,
          9.44078341e-02, 1.21156685e-01, 0., 1.30785078e-01,
          9.71992016e-02, 0., 0., 2.25997344e-01, 1.99188218e-01,
          1.75271660e-01, 1.11283027e-01, 1.39951304e-01, 6.81520253e-02,
          1.39029846e-01, 1.20190382e-01, 1.79392070e-01, 1.17932573e-01,
          8.04620013e-02, 3.27990353e-01, 1.31053641e-01, 0., 0., 0., 0.,
          0., 0., 0., 1.53429195e-01, 1.21341631e-01, 7.10648894e-02,
          1.53744340e-01, 1.75810575e-01, 1.66663662e-01, 1.45343363e-01,
          1.48672149e-01, 1.66029990e-01, 2.13641718e-01, 2.04188287e-01,
          1.89367160e-01, 1.14542186e-01, 0., 1.10830128e-01 ]
      - [ 2.41053373e-01, 3.08246702e-01, 9.36364532e-02, 0., 0., 0., 0.,
          0., 0., 0., 0., 0., 0., 2.07109198e-01, 1.23431087e-01,
          1.47765175e-01, 1.45942077e-01, 1.21671222e-01, 1.93955287e-01,
          1.84430435e-01, 0., 0., 0., 0., 0., 0., 0., 0., 2.62656242e-01,
          1.29113019e-01, 6.77355081e-02, 2.23803073e-01, 5.63796088e-02,
          0., 0., 0., 1.52663618e-01, 7.55476952e-02, 1.49572581e-01,
          3.38943839e-01, 2.48966455e-01, 0., 5.57046048e-02, 0., 0., 0.,
          0., 0., 0., 9.19469893e-02, 8.69385824e-02, 0., 0.,
          1.16119049e-01, 1.90497443e-01, 2.65944064e-01, 1.08685784e-01,
          1.21884033e-01, 1.82328388e-01, 2.42973134e-01, 0., 0., 0.,
          1.41705945e-01 ]
      - [ 9.47012603e-02, 9.77101848e-02, 2.82298476e-01, 1.43131807e-01,
          1.34322032e-01, 2.39676852e-02, 0., 0., 0., 0., 0., 0.,
          1.40968844e-01, 1.64029047e-01, 1.02411978e-01, 1.42002583e-01,
          1.25202358e-01, 1.28256187e-01, 1.91262305e-01, 8.74516591e-02,
          1.05063505e-01, 6.05937578e-02, 3.03807501e-02, 7.67310262e-02,
          6.55520335e-02, 6.32100478e-02, 1.53715983e-01, 1.81872025e-01,
          2.01239407e-01, 1.44817248e-01, 1.33202344e-01, 1.54254600e-01,
          8.84108692e-02, 2.02907976e-02, 6.99353069e-02, 3.19625810e-02,
          3.14348191e-02, 2.20298886e-01, 1.89225599e-01, 1.33313343e-01,
          1.33825436e-01, 1.84963807e-01, 9.98249128e-02, 0., 0.,
          4.73865308e-02, 8.41649994e-02, 0., 0., 0., 1.40731663e-01,
          3.04496348e-01, 7.09971115e-02, 8.06234702e-02, 1.28556103e-01,
          0., 1.23095378e-01, 7.40278289e-02, 2.77102858e-01,
          2.96957791e-01, 6.73021600e-02, 0., 0., 0. ]
      - [ 2.87071824e-01, 2.86728621e-01, 1.32869035e-01, 0., 0.,
          6.97753355e-02, 0., 6.24946207e-02, 0., 0., 0., 0., 0., 0., 0.,
          1.69915743e-02, 2.75313258e-01, 3.76740880e-02, 0., 0., 0., 0.,
          0., 0., 0., 0., 0., 0., 1.89531162e-01, 1.90097287e-01,
          1.86341345e-01, 1.67019352e-01, 0., 0., 1.75095931e-01,
          2.03291416e-01, 1.58178553e-01, 1.58432379e-01, 1.62041798e-01,
          1.60893753e-01, 3.33538055e-01, 7.26674348e-02, 0., 0., 0., 0.,
          0., 0., 1.62927955e-01, 0., 0., 0., 0., 0., 0., 0.,
          4.15377170e-01, 2.08948374e-01, 7.95737654e-02, 1.51864082e-01,
          7.83911496e-02, 1.03969231e-01, 6.53708205e-02, 1.12334922e-01 ]
      - [ 8.75641778e-02, 1.74362659e-01, 1.64649069e-01, 1.35476232e-01,
          2.25433916e-01, 1.57196626e-01, 9.45603624e-02, 0., 0., 0., 0.,
          1.12879910e-01, 2.29768962e-01, 1.67081445e-01, 1.35221422e-01,
          1.01718679e-01, 1.40750840e-01, 1.44420907e-01, 1.54772431e-01,
          1.30455419e-01, 8.53797719e-02, 0., 8.66031423e-02, 0.,
          7.82515109e-03, 1.15862951e-01, 5.40593192e-02, 1.20406866e-01,
          1.30743161e-01, 2.13690087e-01, 1.54089391e-01, 1.34827808e-01,
          8.91914740e-02, 1.05319031e-01, 0., 9.09604803e-02,
          1.12903513e-01, 2.62475878e-01, 2.06988230e-01, 1.83143258e-01,
          8.47187638e-02, 1.13442719e-01, 0., 0., 0., 1.42490759e-01,
          1.16973907e-01, 1.24635473e-01, 0., 1.17139012e-01,
          8.36191326e-02, 0., 7.34508336e-02, 2.08370760e-02,
          5.37266303e-03, 1.98263794e-01, 1.39318034e-01, 2.16556162e-01,
          1.98616967e-01, 1.58216923e-01, 1.07469633e-01, 4.24664728e-02,
          8.77818838e-02, 7.24814609e-02 ]
      - [ 1.31788373e-01, 2.57091373e-02, 1.35889098e-01, 1.04024932e-01,
          1.94753915e-01, 0., 9.85598564e-03, 0., 0., 0., 3.93312164e-02,
          7.98787326e-02, 0., 7.20534623e-02, 2.10459366e-01,
          1.83614999e-01, 0., 7.48129189e-02, 3.75389531e-02,
          1.14434324e-01, 1.06663011e-01, 2.38692775e-01, 0., 0., 0., 0.,
          0., 0., 1.12534732e-01, 2.80740529e-01, 1.94467530e-01,
          1.11559466e-01, 0., 2.33235192e-02, 2.43142843e-01,
          1.44438758e-01, 1.19075887e-01, 1.31005660e-01, 5.15372790e-02,
          1.16414227e-01, 1.96651012e-01, 1.86922073e-01, 2.65412748e-01,
          4.12691981e-02, 0., 0., 0., 0., 1.16183504e-01, 0.,
          7.75100365e-02, 9.60046053e-02, 1.26771972e-01, 8.33682120e-02,
          3.10389459e-01, 1.50954738e-01, 6.30580038e-02, 1.48793280e-01,
          9.18387845e-02, 1.18140683e-01, 2.34759733e-01, 9.94678885e-02,
          1.81221753e-01, 4.76838611e-02 ]
      - [ 0., 1.19386695e-01, 3.33143175e-01, 6.96870387e-02,
          9.23253372e-02, 0., 0., 7.38044456e-02, 8.33005831e-02, 0.,
          1.68986619e-01, 0., 0., 0., 0., 0., 9.29171368e-02,
          1.69852957e-01, 0., 6.51325509e-02, 8.94027725e-02,
          9.33814421e-02, 7.26973712e-02, 0., 0., 0., 1.76768109e-01,
          2.42201045e-01, 1.30142689e-01, 1.39537916e-01, 7.29110390e-02,
          1.27496779e-01, 4.92965356e-02, 8.13921243e-02, 2.32694924e-01,
          2.86822528e-01, 1.51776969e-01, 6.51892871e-02, 1.35653540e-01,
          9.90199745e-02, 7.90672675e-02, 2.30752870e-01, 1.94568142e-01,
          0., 0., 0., 0., 0., 1.79855332e-01, 1.89497635e-01,
          5.08097000e-02, 0., 0., 0., 0., 1.41770437e-01, 1.23726651e-01,
          2.98770964e-01, 1.65439084e-01, 1.74614161e-01, 7.57780597e-02,
          1.48426339e-01, 1.19809806e-01, 1.22530125e-01 ]
      - [ 1.23038188e-01, 2.36197919e-01, 2.68471301e-01, 0., 0., 0., 0.,
          4.47722673e-02, 9.38042551e-02, 1.59779385e-01, 1.61109522e-01,
          6.70218766e-02, 0., 0., 0., 0., 2.06774306e-02, 1.44097051e-02,
          1.46051615e-01, 1.37292862e-01, 7.36666024e-02, 9.18015838e-02,
          6.97042868e-02, 1.09350458e-01, 5.20424955e-02, 0.,
          5.38273230e-02, 1.80963367e-01, 1.77237794e-01, 1.66364536e-01,
          1.01887144e-01, 2.17966601e-01, 0., 0., 1.91309005e-01,
          2.19619587e-01, 2.53684819e-01, 1.55743703e-01, 1.09286234e-01,
          8.42370242e-02, 6.02090135e-02, 1.39270499e-01, 1.75426409e-01,
          1.15323357e-01, 1.18949689e-01, 0., 5.34203500e-02, 0., 0.,
          7.56242126e-02, 8.99453610e-02, 2.04440847e-01, 1.12644739e-01,
          8.54962543e-02, 0., 2.05184668e-02, 1.12754159e-01,
          1.40735671e-01, 2.24660009e-01, 2.64019012e-01, 2.04443797e-01,
          9.18095633e-02, 8.86714831e-02, 0. ]
      - [ 1.36158526e-01, 2.05094039e-01, 1.76532298e-01, 1.74079329e-01,
          0., 8.79101902e-02, 1.20943241e-01, 1.39663503e-01,
          8.66809115e-02, 0., 1.11216202e-01, 8.75815228e-02, 0.,
          1.78168625e-01, 1.15002073e-01, 2.97122784e-02, 2.06847981e-01,
          1.87824905e-01, 0., 0., 5.17896749e-02, 7.27813989e-02,
          8.16268474e-02, 6.96976408e-02, 5.09531647e-02, 9.56722200e-02,
          7.02401847e-02, 0., 1.75505042e-01, 1.74312815e-01,
          1.31333038e-01, 1.64266422e-01, 7.22968057e-02, 1.14037558e-01,
          1.38997495e-01, 5.48578389e-02, 2.10139215e-01, 2.65972078e-01,
          1.15821235e-01, 1.29854277e-01, 1.23846009e-01, 1.56289697e-01,
          0., 0., 1.26358792e-01, 1.35320440e-01, 1.15763493e-01,
          6.70386329e-02, 0., 1.10205285e-01, 7.27431998e-02,
          1.06572971e-01, 1.05788343e-01, 0., 0., 1.89054579e-01,
          1.64368600e-01, 2.36534640e-01, 1.54194340e-01, 2.46156126e-01,
          6.88601509e-02, 8.20273906e-02, 8.24321061e-02, 6.32019714e-02 ]
      - [ 0., 1.49367675e-01, 1.11407444e-01, 1.26152813e-01,
          1.58650964e-01, 8.94720554e-02, 1.87352985e-01, 1.17775187e-01,
          3.24253216e-02, 0., 8.08016360e-02, 9.34406221e-02,
          1.16824225e-01, 0., 1.60582498e-01, 2.22903073e-01,
          1.95346102e-01, 1.53363585e-01, 6.25706762e-02, 7.81150684e-02,
          9.28174630e-02, 1.21387489e-01, 0., 0., 8.16545337e-02, 0.,
          8.80605802e-02, 9.00358409e-02, 1.75457358e-01, 1.52782485e-01,
          1.85940444e-01, 1.40471160e-01, 9.43956077e-02, 1.51664227e-01,
          4.37830389e-02, 1.93389848e-01, 1.89160526e-01, 2.15518802e-01,
          2.08488852e-01, 5.23631535e-02, 0., 5.64227104e-02,
          8.42254683e-02, 1.39607817e-01, 9.41571891e-02, 9.04372185e-02,
          6.58794641e-02, 1.07194848e-01, 5.93050309e-02, 8.88075009e-02,
          9.55161229e-02, 1.09254077e-01, 0., 0., 1.77124247e-01,
          5.23238443e-02, 1.81528091e-01, 1.64002851e-01, 2.28830650e-01,
          2.79809207e-01, 4.77060527e-02, 8.40153322e-02, 0.,
          8.39460269e-02 ]
      - [ 7.06462115e-02, 1.28896102e-01, 2.81207979e-01, 2.43104234e-01,
          7.57899731e-02, 0., 0., 0., 0., 0., 1.06237881e-01,
          1.61241055e-01, 2.07543850e-01, 9.42091048e-02, 9.36717764e-02,
          7.03165606e-02, 9.79416594e-02, 1.13018386e-01, 4.02988195e-02,
          1.23356946e-01, 2.37091333e-01, 4.54770252e-02, 3.83940991e-03,
          0., 0., 3.34712006e-02, 1.45060524e-01, 2.01261029e-01,
          2.20402896e-01, 1.32793307e-01, 1.33075491e-01, 5.28126881e-02,
          0., 0., 0., 5.84844947e-02, 2.03919008e-01, 2.41845399e-01,
          1.72948852e-01, 1.14984155e-01, 4.15984169e-02, 1.68864653e-01,
          4.55956236e-02, 8.39324668e-02, 1.59829080e-01, 7.69767165e-02,
          2.66002119e-02, 7.29164407e-02, 1.03366464e-01, 1.11729406e-01,
          1.73688591e-01, 1.18781403e-01, 0., 0., 1.26480281e-01,
          1.25019699e-01, 1.22805350e-01, 1.90966100e-01, 1.83259085e-01,
          1.83670640e-01, 9.90244970e-02, 9.48519036e-02, 9.31341276e-02,
          1.25428349e-01 ]
      - [ 0., 8.04783851e-02, 1.44909233e-01, 2.30718255e-01,
          1.21995971e-01, 0., 0., 0., 0., 4.12988663e-03, 8.38591345e-03,
          2.25573778e-01, 1.68729335e-01, 5.70064634e-02, 8.25033262e-02,
          7.56001174e-02, 1.62889082e-02, 2.33145475e-01, 2.39825517e-01,
          0., 5.08288331e-02, 8.97382945e-02, 7.19450116e-02, 0.,
          8.63163322e-02, 5.02994843e-02, 0., 1.99060589e-01,
          1.82185978e-01, 8.43225643e-02, 1.03534669e-01, 1.00654878e-01,
          1.73069268e-01, 1.90824151e-01, 0., 0., 1.99900657e-01,
          1.56864479e-01, 1.56293720e-01, 1.18937597e-01, 2.15411797e-01,
          1.42196238e-01, 0., 0., 1.61446795e-01, 1.03831835e-01,
          9.76143479e-02, 0., 0., 1.53164923e-01, 0., 1.88951015e-01,
          1.74740300e-01, 1.04289114e-01, 4.54360321e-02, 1.19647384e-01,
          4.91129048e-03, 2.83106595e-01, 1.06305242e-01, 2.82059789e-01,
          0., 0., 0., 0. ]
      - [ 6.64461404e-02, 1.68966338e-01, 1.56953126e-01, 1.78829804e-01,
          1.81964666e-01, 4.17232253e-02, 0., 0., 0., 0., 0., 0.,
          1.80890337e-01, 2.06627771e-01, 1.41395822e-01, 1.22845240e-01,
          9.76097956e-02, 8.77451524e-02, 8.29512775e-02, 2.21223056e-01,
          1.68927908e-01, 0., 0., 0., 0., 0., 0., 2.23209709e-01,
          1.49587512e-01, 1.76652998e-01, 1.00629099e-01, 0.,
          6.01410791e-02, 0., 0., 6.04180321e-02, 2.48843729e-01,
          2.28433311e-01, 1.25701785e-01, 1.03855699e-01, 1.45862535e-01,
          6.95287436e-02, 1.44752681e-01, 1.66023642e-01, 0.,
          4.44758646e-02, 4.64091115e-02, 0., 0., 1.52439833e-01,
          1.74173102e-01, 1.00452319e-01, 7.91814476e-02, 1.01290092e-01,
          1.31560341e-01, 9.98271778e-02, 1.88921019e-01, 1.84438556e-01,
          2.26615265e-01, 1.64475530e-01, 1.35513067e-01, 1.60619721e-01,
          7.77270123e-02, 1.32088795e-01 ]
      - [ 0., 3.60391587e-01, 8.81485641e-02, 0., 0., 0., 0., 0., 0.,
          2.34287798e-01, 0., 0., 0., 0., 0., 0., 1.43312559e-01,
          1.84750825e-01, 1.28904566e-01, 6.47760481e-02, 0.,
          7.84506425e-02, 3.99758816e-02, 1.20416380e-01, 0.,
          1.05804555e-01, 0., 5.16772754e-02, 1.68202162e-01,
          2.52549827e-01, 1.62643790e-01, 3.27517502e-02, 5.63743263e-02,
          1.41001463e-01, 2.01169461e-01, 1.93267569e-01, 1.25764072e-01,
          1.13737114e-01, 1.82299897e-01, 4.57239263e-02, 1.07898511e-01,
          2.71833271e-01, 0., 4.76001315e-02, 0., 7.30166137e-02,
          3.37986238e-02, 0., 1.21219970e-01, 7.45614395e-02, 0.,
          1.54524654e-01, 1.41105324e-01, 1.08745731e-01, 1.10543497e-01,
          1.19979136e-01, 1.52282253e-01, 2.39640757e-01, 2.25015730e-01,
          1.80338204e-01, 1.49755180e-01, 1.36625782e-01, 9.83670503e-02,
          0. ]
      - [ 1.06815644e-01, 9.17928442e-02, 2.64033705e-01, 1.47370756e-01,
          4.60147224e-02, 0., 0., 0., 0., 0., 0., 1.72128245e-01,
          9.21934173e-02, 8.38447884e-02, 8.62896889e-02, 6.33985177e-02,
          5.17489351e-02, 8.55407938e-02, 1.18889324e-01, 8.73275250e-02,
          2.08090216e-01, 1.04547180e-01, 1.30266711e-01, 0.,
          1.17125623e-01, 5.11845462e-02, 2.61247233e-02, 0.,
          2.44298801e-01, 2.00909406e-01, 1.98646426e-01, 1.07507318e-01,
          0., 8.09574053e-02, 1.93382978e-01, 1.49139628e-01,
          8.47625732e-02, 1.19752020e-01, 1.70100316e-01, 1.42574027e-01,
          2.42406413e-01, 0., 0., 5.39550334e-02, 1.09530933e-01,
          7.94638172e-02, 6.36695772e-02, 8.38875920e-02, 1.22617498e-01,
          7.74374306e-02, 1.15418486e-01, 1.98100165e-01, 0.,
          1.58731803e-01, 1.77648157e-01, 1.23312660e-01, 1.11940607e-01,
          1.52387798e-01, 1.66898891e-01, 1.80852309e-01, 2.65462250e-01,
          7.08000958e-02, 1.16356470e-01, 0. ]
      - [ 1.61771312e-01, 2.09463730e-01, 9.54038724e-02, 1.82601288e-01,
          2.15147495e-01, 0., 0., 0., 6.08728006e-02, 1.31653637e-01,
          6.76672608e-02, 1.39472991e-01, 1.97107241e-01, 0., 0.,
          4.80400845e-02, 1.69113412e-01, 2.56998509e-01, 0., 0.,
          5.14336489e-02, 0., 0., 0., 0., 2.35538051e-01, 1.54437795e-01,
          8.98270458e-02, 9.44314823e-02, 7.27157518e-02, 1.37298778e-02,
          1.19257569e-01, 0., 0., 0., 0., 3.51540178e-01, 1.07705504e-01,
          9.02482942e-02, 1.14691138e-01, 9.76704136e-02, 9.60356295e-02,
          0., 1.59821734e-01, 2.21266925e-01, 9.80522484e-02,
          8.92697126e-02, 0., 1.31084681e-01, 2.80931711e-01,
          1.00609027e-01, 0., 0., 0., 0., 0., 1.96721897e-01,
          3.20872307e-01, 1.52332485e-01, 0., 5.03106229e-02,
          2.71130428e-02, 0., 0. ]
      - [ 1.38645336e-01, 2.49876827e-01, 1.34261027e-01, 1.48984537e-01,
          0., 0., 0., 0., 0., 1.95289746e-01, 4.59415913e-02, 0., 0., 0.,
          0., 1.90098986e-01, 1.89970240e-01, 3.46826017e-02, 0., 0.,
          1.52172372e-01, 9.51969549e-02, 8.14712718e-02, 1.16287157e-01,
          1.99227631e-01, 9.19428840e-02, 0., 2.52730455e-02,
          1.79844126e-01, 1.66976228e-01, 1.62388444e-01, 2.11305916e-01,
          4.96734381e-02, 0., 3.20319608e-02, 1.18176758e-01,
          1.88214809e-01, 1.19859017e-01, 1.36345312e-01, 2.53728360e-01,
          8.65580961e-02, 1.68368414e-01, 1.05479650e-01, 5.91072030e-02,
          5.91823235e-02, 0., 6.99541271e-02, 1.80616871e-01,
          1.23196967e-01, 1.31799415e-01, 1.35745391e-01, 1.49643943e-01,
          0., 0., 0., 1.74258485e-01, 1.88237593e-01, 2.39105120e-01,
          1.60231039e-01, 1.30493939e-01, 1.40048385e-01, 0.,
          6.35527596e-02, 1.66249722e-01 ]
      - [ 1.42409921e-01, 1.60825104e-01, 2.27509633e-01, 1.38619810e-01,
          0., 0., 1.87293649e-01, 5.43741994e-02, 1.00217186e-01, 0.,
          1.07985944e-01, 1.00295790e-01, 4.43203412e-02, 0.,
          1.61917314e-01, 1.43508926e-01, 1.74759075e-01, 1.71370998e-01,
          1.28074288e-01, 0., 0., 8.99097174e-02, 1.11986205e-01, 0.,
          9.11273733e-02, 1.00172848e-01, 1.38027206e-01, 1.29338548e-01,
          8.53702649e-02, 2.02154949e-01, 1.92507476e-01, 1.28921822e-01,
          9.46163982e-02, 0., 4.01915088e-02, 1.82045400e-01,
          1.19325198e-01, 1.07519187e-01, 2.22912431e-01, 1.83677047e-01,
          1.62707105e-01, 1.08149558e-01, 0., 0., 0., 1.32045746e-01,
          1.64078861e-01, 9.78416353e-02, 0., 9.44754332e-02,
          1.22870155e-01, 5.44672497e-02, 9.72447246e-02, 0.,
          8.22768509e-02, 2.46290401e-01, 2.42075995e-01, 1.22691728e-01,
          1.12741314e-01, 8.48909542e-02, 1.87523216e-01, 8.00803602e-02,
          1.33282840e-01, 9.79302824e-02 ]
      - [ 0., 3.72867674e-01, 1.65309891e-01, 0., 0., 1.21739544e-01,
          8.98385718e-02, 0., 0., 1.01521917e-01, 0., 6.55532628e-02, 0.,
          0., 0., 0., 2.66549438e-01, 5.54521829e-02, 4.46990766e-02, 0.,
          0., 0., 0., 0., 0., 0., 0., 1.93754151e-01, 1.94639355e-01,
          1.94457382e-01, 1.93388596e-01, 6.96148574e-02, 0.,
          1.03119664e-01, 2.08065510e-01, 1.12161040e-01, 1.10675037e-01,
          8.84457827e-02, 1.05811499e-01, 2.94686228e-01, 2.03378305e-01,
          5.49587794e-02, 0., 9.31634828e-02, 0., 1.14053220e-01, 0.,
          8.17407742e-02, 1.93369299e-01, 0., 8.60332325e-02, 0., 0., 0.,
          7.48271123e-02, 1.00755289e-01, 3.87964249e-01, 1.67742133e-01,
          1.44818321e-01, 0., 1.38751209e-01, 1.04120173e-01, 0.,
          1.30049571e-01 ]
      - [ 1.16634727e-01, 1.54334903e-01, 2.05949381e-01, 2.10504711e-01,
          1.18442401e-01, 0., 8.20056573e-02, 0., 0., 0., 1.07632011e-01,
          5.13497889e-02, 1.12305619e-01, 7.70137459e-02, 2.54901946e-01,
          9.55813453e-02, 1.74596444e-01, 2.10859448e-01, 0., 0.,
          8.79497752e-02, 0., 7.97787607e-02, 5.92921786e-02,
          1.04711004e-01, 8.81953984e-02, 7.10273981e-02, 1.39182299e-01,
          8.20602626e-02, 1.69330925e-01, 1.60277441e-01, 2.27691308e-01,
          7.98648745e-02, 0., 3.56221907e-02, 1.18790776e-01,
          1.97761044e-01, 1.93096057e-01, 1.45730749e-01, 1.16119623e-01,
          2.30589554e-01, 1.95229277e-01, 0., 0., 0., 1.10123724e-01,
          6.46529347e-02, 6.64762706e-02, 9.86422375e-02, 8.43853131e-02,
          8.58913213e-02, 7.49180913e-02, 0., 0., 1.57339334e-01,
          1.98413789e-01, 1.95802972e-01, 1.63636729e-01, 2.65177459e-01,
          1.17036179e-01, 0., 6.30790070e-02, 8.71590972e-02, 0. ]
      - [ 1.10468723e-01, 2.21840709e-01, 1.10443085e-01, 1.20159067e-01,
          8.11774135e-02, 6.47354275e-02, 1.31461099e-01, 1.27863243e-01,
          1.08187936e-01, 1.08835645e-01, 0., 8.60892385e-02,
          4.97175157e-02, 1.30064622e-01, 1.41932860e-01, 1.30600095e-01,
          2.38938835e-02, 1.36451751e-01, 1.87947884e-01, 2.05496877e-01,
          0., 0., 0., 0., 6.12493828e-02, 9.81514305e-02, 7.41197243e-02,
          1.41375065e-01, 1.69278651e-01, 1.89185396e-01, 1.64402112e-01,
          1.49617612e-01, 1.59248650e-01, 1.01636872e-01, 2.26026461e-01,
          6.40685186e-02, 1.18318990e-01, 1.11314908e-01, 7.21847564e-02,
          1.62596270e-01, 2.24876016e-01, 1.39556348e-01, 1.07933588e-01,
          1.52673647e-01, 0., 0., 0., 6.70846775e-02, 0., 0.,
          1.32397041e-01, 1.91119447e-01, 0., 8.82898867e-02,
          1.62084088e-01, 1.76639348e-01, 1.35986090e-01, 1.14512652e-01,
          2.43211448e-01, 1.35706335e-01, 1.40616283e-01, 1.35455191e-01,
          2.35877689e-02, 7.01098293e-02 ]
      - [ 3.05233091e-01, 1.39231533e-01, 1.67657301e-01, 1.17659256e-01,
          1.33178353e-01, 1.20332979e-01, 1.21560760e-01, 0., 0., 0., 0.,
          0., 0., 0., 0., 1.51437208e-01, 2.49723569e-01, 1.02709951e-02,
          0., 0., 0., 0., 0., 0., 0., 0., 0., 0., 1.43204585e-01,
          2.38607705e-01, 2.13762984e-01, 2.10831493e-01, 0., 0., 0.,
          2.36847818e-01, 2.62854487e-01, 1.67923614e-01, 1.97476238e-01,
          2.30369136e-01, 1.20167077e-01, 0., 0., 0., 0., 0., 0., 0., 0.,
          0., 0., 0., 0., 0., 0., 0., 3.25591326e-01, 1.32721201e-01,
          2.28472978e-01, 3.30810100e-01, 1.89776383e-02, 0., 0., 0. ]
      - [ 7.28899240e-02, 2.34590024e-01, 2.28772029e-01, 1.17597111e-01,
          2.52460688e-02, 0., 0., 4.13524993e-02, 3.56906578e-02,
          1.46936893e-01, 1.81844532e-01, 0., 0., 0., 0., 0.,
          1.47492856e-01, 0., 1.13509312e-01, 0., 1.58575028e-01,
          1.00653484e-01, 1.04155749e-01, 7.06026405e-02, 1.32221758e-01,
          1.03917010e-01, 0., 1.02927476e-01, 2.05186039e-01,
          1.70515984e-01, 1.76303625e-01, 1.61526740e-01, 7.72457495e-02,
          5.06197624e-02, 1.13659784e-01, 2.14723110e-01, 2.09742695e-01,
          1.19349107e-01, 1.24408759e-01, 8.21494013e-02, 1.57968938e-01,
          1.09231159e-01, 1.65483162e-01, 6.51889294e-02, 1.03313290e-01,
          0., 1.14183441e-01, 7.89978653e-02, 0., 1.09080680e-01,
          1.34515449e-01, 1.95854902e-01, 1.19637109e-01, 1.22590192e-01,
          1.03280388e-01, 1.04726173e-01, 1.17438659e-01, 1.56328142e-01,
          2.05683187e-01, 2.31230035e-01, 2.06846967e-01, 1.00370526e-01,
          0., 9.77508202e-02 ]
      - [ 1.35236010e-01, 2.91350782e-01, 7.96165615e-02, 1.22355796e-01,
          8.04133900e-03, 6.06704913e-02, 1.12336010e-01, 9.50994119e-02,
          1.09217130e-01, 2.53630549e-01, 0., 0., 0., 0., 0., 0.,
          1.44720286e-01, 1.09157264e-01, 1.31772801e-01, 1.39075518e-01,
          1.35273576e-01, 1.09292515e-01, 8.60900059e-02, 1.36278197e-01,
          0., 0., 0., 0., 3.12606931e-01, 1.56853080e-01, 9.62519348e-02,
          1.32472143e-01, 6.57452121e-02, 1.05146326e-01, 2.11980700e-01,
          2.00929031e-01, 1.58688530e-01, 1.11803733e-01, 1.03050701e-01,
          1.58958048e-01, 0., 9.22748297e-02, 1.18207619e-01,
          1.46798655e-01, 9.53154787e-02, 0., 7.89071396e-02, 0.,
          8.40220377e-02, 1.13034129e-01, 9.12043825e-02, 1.66244686e-01,
          8.59332010e-02, 1.38821572e-01, 0., 8.65870640e-02,
          1.18444964e-01, 1.85129613e-01, 2.05088869e-01, 2.91295439e-01,
          1.23360362e-02, 0., 0., 0. ]
      - [ 2.04103351e-01, 1.23732790e-01, 1.73450008e-01, 1.39137506e-01,
          0., 1.56206116e-01, 1.70689180e-01, 4.38412055e-02,
          1.96123928e-01, 0., 0., 0., 0., 0., 2.56238468e-02,
          1.34887904e-01, 1.17378399e-01, 0., 9.78672951e-02,
          1.08047806e-01, 1.04785845e-01, 7.78422356e-02, 0., 0., 0., 0.,
          0., 1.55643791e-01, 2.35262871e-01, 1.46056071e-01,
          1.95673272e-01, 1.35869890e-01, 1.69380710e-01, 2.49252781e-01,
          2.11985737e-01, 0., 1.26302913e-01, 9.62331295e-02,
          1.31188825e-01, 1.30465850e-01, 1.32618874e-01, 2.74249315e-01,
          0., 0., 0., 0., 0., 3.56394313e-02, 1.60826623e-01, 0.,
          8.48794952e-02, 0., 0., 3.53227518e-02, 2.14879941e-02,
          1.36956796e-01, 3.45641851e-01, 1.44796863e-01, 8.75137225e-02,
          1.36614904e-01, 4.52675708e-02, 1.22211806e-01, 1.51034430e-01,
          1.47413254e-01 ]
      - [ 6.25526160e-02, 9.65144113e-02, 4.61266711e-02, 1.58759534e-01,
          2.25335062e-01, 2.08987504e-01, 1.74041055e-02, 0., 0., 0., 0.,
          0., 2.22854942e-01, 1.48017198e-01, 2.26707608e-01, 0.,
          1.51630625e-01, 9.70170647e-02, 2.05848187e-01, 2.10171044e-01,
          0., 0., 0., 0., 0., 0., 0., 0., 2.26841345e-01, 2.64785051e-01,
          3.09708323e-02, 1.51429981e-01, 0., 2.05278903e-01,
          1.61198974e-01, 1.92965940e-01, 1.09992750e-01, 2.01201051e-01,
          1.56272516e-01, 0., 2.16963142e-01, 9.24384668e-02, 0., 0., 0.,
          0., 0., 0., 8.79815370e-02, 8.41981992e-02, 0., 0., 0.,
          5.71785569e-02, 0., 0., 1.76392883e-01, 3.61282647e-01,
          1.33945912e-01, 2.01164395e-01, 0., 0., 0., 3.43537107e-02 ]
      - [ 2.00526938e-01, 1.04404859e-01, 2.36879066e-01, 1.24965630e-01,
          2.10248068e-01, 2.72423960e-02, 0., 0., 0., 0., 0., 0.,
          2.23111868e-01, 1.54841498e-01, 6.95989057e-02, 4.26753014e-02,
          1.04464576e-01, 9.06329453e-02, 4.59135696e-02, 1.52511045e-01,
          1.18796982e-01, 1.84859753e-01, 1.12356573e-01, 0., 0., 0., 0.,
          0., 2.39279792e-01, 2.30543107e-01, 1.91668108e-01,
          1.07609957e-01, 1.09875411e-01, 1.09637007e-01, 0.,
          9.09356400e-02, 1.16397113e-01, 1.91156462e-01, 1.28925547e-01,
          2.05345109e-01, 2.12617293e-01, 1.25877038e-01, 0., 0.,
          4.58514653e-02, 0., 1.25923544e-01, 6.88117146e-02,
          1.33027077e-01, 1.47103831e-01, 7.42640719e-02, 0., 0., 0.,
          1.40656501e-01, 2.38756090e-01, 1.48611382e-01, 1.89588293e-01,
          1.50146469e-01, 1.53643712e-01, 9.01089534e-02, 0.,
          1.12560630e-01, 1.26783937e-01 ]
      - [ 3.17066103e-01, 2.48727039e-01, 5.71733899e-02, 0., 0., 0.,
          9.26017016e-02, 0., 1.14000745e-01, 1.11820556e-01,
          5.09480089e-02, 0., 0., 0., 0., 0., 1.92038834e-01, 0., 0., 0.,
          8.71487483e-02, 1.06848828e-01, 7.57431015e-02, 1.33452386e-01,
          1.95372537e-01, 0., 0., 0., 1.57596186e-01, 1.56606257e-01,
          1.69875816e-01, 2.33508319e-01, 0., 5.75903803e-02,
          1.07383013e-01, 9.13956910e-02, 2.11287975e-01, 1.58872589e-01,
          1.83380261e-01, 1.67978495e-01, 1.48407355e-01, 2.24036172e-01,
          0., 1.19891360e-01, 0., 1.17216177e-01, 7.54717886e-02, 0.,
          1.48999646e-01, 1.67884976e-01, 1.43290356e-01, 7.50346035e-02,
          0., 2.50758100e-02, 0., 1.47530869e-01, 2.11122766e-01,
          2.36731932e-01, 2.32436553e-01, 1.08407266e-01, 0., 0., 0.,
          1.44977883e-01 ]
      - [ 1.50291875e-01, 2.68894434e-01, 2.05210418e-01, 7.88861960e-02,
          6.89457282e-02, 7.96037316e-02, 6.30569085e-02, 1.03815705e-01,
          0., 1.79066181e-01, 0., 0., 0., 0., 0., 0., 1.32132456e-01,
          2.64313426e-02, 0., 0., 7.84021094e-02, 1.33749396e-01,
          6.20945208e-02, 1.33200184e-01, 5.19292355e-02, 1.07794054e-01,
          9.38938558e-02, 1.16981424e-01, 1.72923043e-01, 1.99148551e-01,
          1.72790661e-01, 1.83989078e-01, 0., 0., 1.68030754e-01,
          2.45031700e-01, 1.90080613e-01, 1.75685912e-01, 1.06995553e-01,
          6.89134300e-02, 4.35108356e-02, 8.74042362e-02, 2.39369124e-01,
          1.30668417e-01, 0., 0., 0., 0., 1.21329583e-01, 1.15440331e-01,
          7.35412687e-02, 1.20332576e-01, 1.72066897e-01, 0.,
          1.27920732e-01, 1.29399583e-01, 1.24646381e-01, 2.01712504e-01,
          1.32936627e-01, 2.38686681e-01, 2.28516266e-01, 9.10228267e-02,
          8.34100321e-02, 2.51371339e-02 ]
      - [ 1.13234244e-01, 2.73322165e-01, 2.45912954e-01, 0., 0., 0., 0.,
          0., 0., 0., 1.66585565e-01, 1.83968097e-01, 1.04222864e-01,
          1.19213149e-01, 1.24686249e-01, 9.14667174e-02, 3.94078106e-01,
          7.64141083e-02, 0., 0., 0., 0., 0., 0., 0., 0., 4.06294540e-02,
          0., 4.52127419e-02, 1.19949728e-01, 1.51620805e-01,
          1.22017063e-01, 1.63510606e-01, 0., 8.50516930e-02,
          1.63408890e-01, 9.70146954e-02, 1.48075640e-01, 1.22149989e-01,
          2.19667673e-01, 2.83729732e-01, 9.82584283e-02, 0., 0.,
          8.49183500e-02, 9.66481864e-02, 0., 0., 1.49303555e-01, 0., 0.,
          0., 0., 0., 0., 2.49807343e-01, 3.68197560e-01, 1.27757832e-01,
          1.10814512e-01, 1.16449066e-01, 0., 0., 0., 0. ]
      - [ 2.16117844e-01, 1.18867598e-01, 6.24550991e-02, 0.,
          1.06724583e-01, 7.44197592e-02, 9.76972133e-02, 1.29987031e-01,
          1.13947928e-01, 0., 0., 0., 0., 0., 7.29905162e-03,
          1.36592746e-01, 1.33545548e-01, 1.26423277e-02, 1.01375110e-01,
          1.18932948e-01, 1.51936367e-01, 1.21984214e-01, 1.17186591e-01,
          0., 0., 0., 0., 0., 2.67145902e-01, 1.91313490e-01,
          1.46538302e-01, 1.38937235e-01, 2.30580270e-01, 9.73295867e-02,
          1.21274181e-01, 4.69798446e-02, 1.26465693e-01, 8.30947235e-02,
          1.90140933e-01, 2.45339960e-01, 2.00275913e-01, 1.72575414e-02,
          0., 0., 0., 0., 3.99841033e-02, 1.76748991e-01, 1.14158310e-01,
          1.44813895e-01, 1.50526062e-01, 0., 0., 0., 1.90519929e-01,
          1.95483938e-01, 2.43303984e-01, 2.27410153e-01, 9.61053222e-02,
          1.24389544e-01, 1.41214564e-01, 1.33928865e-01, 1.65142477e-01,
          1.15537755e-01 ]
      - [ 1.91555843e-02, 2.64179021e-01, 2.64804363e-01, 0., 0., 0., 0.,
          7.67287984e-03, 0., 1.89628273e-01, 1.60714105e-01,
          8.74402523e-02, 0., 0., 0., 3.99908982e-02, 1.36075452e-01,
          1.66608449e-02, 8.62636045e-02, 1.41898125e-01, 1.00355186e-01,
          0., 9.66997743e-02, 8.25357661e-02, 1.01781949e-01,
          4.10255864e-02, 7.76793137e-02, 1.90702304e-01, 1.59254014e-01,
          1.20885119e-01, 1.33779481e-01, 1.30590543e-01, 1.72467768e-01,
          1.88088864e-01, 6.88574016e-02, 2.14034379e-01, 1.06486440e-01,
          1.33454144e-01, 9.57082063e-02, 1.50075912e-01, 2.08975837e-01,
          1.41182497e-01, 2.09316045e-01, 0., 0., 0., 0., 4.19621915e-02,
          1.81342244e-01, 1.12702757e-01, 1.33988991e-01, 9.93348584e-02,
          0., 0., 1.21225454e-02, 1.60119370e-01, 3.05800378e-01,
          1.47011280e-01, 8.60166475e-02, 1.14413396e-01, 8.78797993e-02,
          1.46317378e-01, 1.46093816e-01, 1.25247836e-01 ]
      - [ 2.78014690e-01, 1.35544389e-01, 1.14267632e-01, 7.21790791e-02,
          8.12739879e-02, 4.85600010e-02, 1.16713315e-01, 2.11115614e-01,
          1.91894770e-01, 0., 0., 0., 2.04264503e-02, 0., 4.27341694e-03,
          0., 2.05622107e-01, 1.70886874e-01, 7.94642419e-02,
          1.09982751e-01, 0., 1.41488135e-01, 0., 0., 0., 0., 0.,
          1.90477833e-01, 9.68782082e-02, 2.52222270e-01, 1.69116855e-01,
          1.38632596e-01, 2.50538677e-01, 1.65698424e-01, 6.57166541e-02,
          5.12356274e-02, 1.24300845e-01, 1.67424813e-01, 1.76688269e-01,
          1.27486482e-01, 2.24243566e-01, 0., 0., 0., 0., 0., 0.,
          1.35140523e-01, 0., 0., 1.49877399e-01, 0., 4.44723926e-02,
          1.09260283e-01, 1.16893776e-01, 1.29308850e-01, 1.77575171e-01,
          2.19268113e-01, 2.24553496e-01, 2.23165229e-01, 7.20183253e-02,
          6.73636645e-02, 0., 4.05123830e-02 ]
      - [ 2.39823326e-01, 1.72485948e-01, 2.11610764e-01, 1.52326882e-01,
          0., 4.98575605e-02, 3.53886001e-02, 0., 1.87096402e-01,
          2.15005144e-01, 1.34026438e-01, 9.44182053e-02, 0., 0., 0.,
          5.34036122e-02, 0., 0., 0., 1.12154499e-01, 9.75972936e-02,
          1.56131461e-01, 1.25653967e-01, 1.30906984e-01, 1.54149339e-01,
          0., 0., 1.12370439e-01, 1.18330345e-01, 1.82122037e-01,
          2.31108218e-01, 1.90225169e-01, 1.41494676e-01, 5.70676550e-02,
          8.48164186e-02, 5.03779836e-02, 1.03895359e-01, 1.41931653e-01,
          1.44908056e-01, 2.03294054e-01, 1.41170219e-01, 5.43828718e-02,
          8.22893456e-02, 9.54226255e-02, 0., 0., 9.95138586e-02,
          2.08800584e-01, 1.34553134e-01, 1.91872761e-01, 2.03117535e-01,
          9.39121544e-02, 0., 0., 5.29307760e-02, 0., 1.68019280e-01,
          1.78696454e-01, 2.48670921e-01, 1.70483902e-01, 0., 0.,
          9.27426293e-03, 0. ]
      - [ 0., 1.91663653e-01, 3.52929682e-01, 1.21984720e-01, 0.,
          8.96841064e-02, 8.13237727e-02, 0., 0., 1.33282110e-01,
          1.81386650e-01, 0., 0., 0., 0., 1.45159632e-01, 2.85985857e-01,
          1.00956887e-01, 0., 0., 0., 0., 0., 0., 0., 5.28391525e-02, 0.,
          1.71168000e-01, 1.96340218e-01, 2.02392489e-01, 1.72226325e-01,
          9.82919782e-02, 1.03206985e-01, 8.83894637e-02, 1.47224575e-01,
          1.45760641e-01, 1.41672984e-01, 1.44760668e-01, 2.40137711e-01,
          0., 2.56068259e-01, 7.48466030e-02, 0., 0., 9.34078693e-02, 0.,
          1.16171211e-01, 0., 1.53628051e-01, 0., 0., 0., 0., 0.,
          3.94831114e-02, 3.64211649e-02, 3.89794260e-01, 1.74681276e-01,
          9.81092006e-02, 0., 0., 1.15049958e-01, 9.61842909e-02, 0. ]
      - [ 9.22233611e-02, 1.56633541e-01, 1.40909806e-01, 1.78755909e-01,
          1.38136700e-01, 0., 0., 0., 0., 0., 2.47294027e-02,
          2.13017493e-01, 9.65831429e-02, 7.42483363e-02, 8.62099305e-02,
          1.23503610e-01, 7.83288106e-02, 8.50554854e-02, 7.74763376e-02,
          1.18100658e-01, 2.13063061e-01, 1.87157422e-01, 2.02793833e-02,
          0., 0., 0., 0., 0., 2.52300769e-01, 1.89600050e-01,
          1.93090677e-01, 5.23366258e-02, 1.24992833e-01, 7.22431988e-02,
          1.49318129e-01, 0., 1.69236839e-01, 1.85977653e-01,
          1.32809415e-01, 1.06613427e-01, 1.90754354e-01, 1.96321398e-01,
          1.51331015e-02, 0., 8.84472057e-02, 8.00796747e-02,
          1.09307066e-01, 5.72730005e-02, 8.81077796e-02, 0.,
          1.19279660e-01, 1.46897480e-01, 1.27710894e-01, 1.45771667e-01,
          2.01732799e-01, 1.26011297e-01, 1.19822279e-01, 1.40831932e-01,
          1.44328222e-01, 2.28328153e-01, 1.34415016e-01, 2.22189873e-01,
          0., 8.05232152e-02 ]
      - [ 9.78979096e-02, 1.33688912e-01, 1.91521958e-01, 1.21393323e-01,
          2.42538452e-01, 1.54005915e-01, 0., 0., 0., 0., 0., 0.,
          1.96471095e-01, 1.80454582e-01, 7.21308887e-02, 0.,
          2.06932336e-01, 1.07408062e-01, 8.58467892e-02, 5.25492132e-02,
          1.25579238e-01, 4.30852100e-02, 8.87019709e-02, 9.50253010e-02,
          9.27018374e-02, 0., 1.70173794e-01, 1.41767919e-01,
          1.19432673e-01, 1.19093940e-01, 2.50008434e-01, 1.53817475e-01,
          1.58132270e-01, 8.27469528e-02, 0., 0., 0., 2.51296937e-01,
          2.24371955e-01, 1.70379758e-01, 1.58043727e-01, 0., 0., 0., 0.,
          1.35918394e-01, 1.43142939e-01, 1.30532742e-01, 1.09468922e-01,
          7.21575841e-02, 0., 1.17870919e-01, 0., 8.68170187e-02,
          5.74599877e-02, 1.78180918e-01, 2.55929768e-01, 1.27305523e-01,
          1.63463324e-01, 1.52177587e-01, 1.43654749e-01, 0., 0.,
          9.84494314e-02 ]
      - [ 0., 2.80277222e-01, 3.08158517e-01, 0., 0., 0., 0., 0., 0., 0.,
          2.09447160e-01, 1.52019560e-01, 0., 0., 0., 0., 9.57416221e-02,
          2.35161856e-01, 0., 0., 0., 0., 0., 0., 2.86603030e-02,
          3.55985686e-02, 2.14509800e-01, 9.97679234e-02, 1.25371844e-01,
          9.39129740e-02, 1.47105873e-01, 1.40194312e-01, 1.10680446e-01,
          0., 0., 1.14841044e-01, 1.33610472e-01, 2.33804196e-01,
          2.26559520e-01, 1.32356957e-01, 1.96986943e-01, 3.48036624e-02,
          4.29915488e-02, 1.63027063e-01, 0., 1.46443561e-01,
          9.97814536e-02, 1.13847710e-01, 2.64323115e-01, 1.54581368e-01,
          4.96667214e-02, 0., 0., 0., 0., 0., 2.73925722e-01,
          3.18876207e-01, 1.14244692e-01, 0., 0., 0., 0., 7.44517297e-02 ]
      - [ 2.76028097e-01, 2.21181750e-01, 1.31240219e-01, 5.90189137e-02,
          0., 0., 0., 0., 0., 0., 0., 0., 0., 0., 2.09806323e-01,
          1.90462098e-01, 3.54347944e-01, 1.14305355e-01, 0., 0., 0., 0.,
          0., 0., 0., 0., 0., 0., 0., 1.68261081e-01, 1.74449012e-01,
          2.25219652e-01, 5.69650009e-02, 0., 0., 0., 1.41186491e-01,
          1.42928690e-01, 1.21362217e-01, 3.11552614e-01, 2.63005465e-01,
          2.52051335e-02, 8.44979361e-02, 0., 0., 0., 0., 5.82609586e-02,
          0., 0., 0., 0., 0., 1.46375969e-01, 2.06818402e-01,
          2.13505909e-01, 3.22005153e-01, 1.20545633e-01, 1.45437345e-01,
          1.02270491e-01, 1.74447671e-01, 0., 0., 0. ]
      - [ 1.17413826e-01, 7.42680877e-02, 1.21093765e-01, 3.10385078e-01,
          4.74460274e-02, 0., 0., 0., 0., 6.85488135e-02, 1.29071683e-01,
          2.75086105e-01, 1.09601393e-01, 8.34868997e-02, 1.16180226e-01,
          0., 0., 1.25635922e-01, 1.47954911e-01, 2.65406847e-01, 0., 0.,
          0., 7.40928277e-02, 7.69132227e-02, 4.04878743e-02,
          4.23415415e-02, 1.69238403e-01, 2.33683571e-01, 7.55727813e-02,
          1.18963487e-01, 1.22789964e-01, 0., 1.25363320e-01, 0.,
          8.90782103e-02, 2.56191969e-01, 1.60379872e-01, 1.14253901e-01,
          1.00320481e-01, 1.25186324e-01, 2.36736387e-02, 0.,
          3.76456454e-02, 2.32310981e-01, 8.42652023e-02, 0.,
          8.34870338e-02, 0., 5.74068278e-02, 1.82723522e-01,
          2.21409619e-01, 8.36215317e-02, 0., 0., 1.09012477e-01,
          1.21014096e-01, 1.08248726e-01, 2.47213706e-01, 2.49419957e-01,
          9.58816260e-02, 7.00009316e-02, 6.79218471e-02, 0. ]
      - [ 8.72008502e-02, 1.85883045e-01, 1.65413469e-01, 2.17157334e-01,
          0., 0., 0., 0., 0., 0., 1.09261386e-01, 2.11569190e-01,
          5.93267158e-02, 1.01641402e-01, 7.74084628e-02, 9.07742605e-02,
          2.26037711e-01, 2.27814123e-01, 0., 0., 6.55264109e-02,
          6.84540197e-02, 1.09910659e-01, 5.48985004e-02, 1.62209883e-01,
          0., 0., 0., 1.49831742e-01, 1.75393283e-01, 1.66335776e-01,
          1.05586022e-01, 1.03655957e-01, 1.85055703e-01, 4.00433168e-02,
          1.45929158e-01, 1.36642873e-01, 1.80762827e-01, 1.36778042e-01,
          1.39021456e-01, 1.66141659e-01, 2.27042884e-01, 0.,
          5.31690679e-02, 1.33710489e-01, 1.08205892e-01, 0.,
          6.93854690e-02, 0., 0., 0., 1.93648025e-01, 2.05965325e-01,
          9.74379480e-02, 9.68359709e-02, 6.14272691e-02, 1.46624982e-01,
          2.43886039e-01, 1.16103366e-01, 2.87158251e-01, 0., 0., 0., 0. ]
      - [ 1.39916390e-01, 7.11202696e-02, 1.36724204e-01, 2.04365894e-01,
          7.56574348e-02, 0., 0., 0., 0., 7.19708651e-02, 7.57267103e-02,
          4.64376509e-02, 0., 0., 2.07996339e-01, 2.72658944e-01,
          4.42449003e-02, 1.38842970e-01, 1.38515532e-01, 1.31624088e-01,
          1.39710739e-01, 1.38978958e-01, 1.22012496e-02, 0., 0., 0., 0.,
          0., 0., 3.08725864e-01, 1.52826160e-01, 2.27856532e-01, 0., 0.,
          0., 0., 2.30462596e-01, 1.55976921e-01, 2.34081700e-01,
          1.18041083e-01, 1.20222785e-01, 1.64038032e-01, 1.92435771e-01,
          1.57834992e-01, 0., 0., 0., 0., 9.44564864e-02, 8.64678547e-02,
          6.36937320e-02, 0., 0., 0., 9.21905860e-02, 3.56285334e-01,
          1.42174616e-01, 1.47627473e-01, 8.49157870e-02, 1.44357547e-01,
          1.46105528e-01, 8.95392746e-02, 0., 7.99989700e-02 ]
      - [ 3.26997899e-02, 9.74051803e-02, 1.20667055e-01, 8.43428597e-02,
          2.87288696e-01, 8.27948973e-02, 0., 0., 0., 0., 0., 0.,
          2.85903603e-01, 1.37854949e-01, 1.36138275e-01, 9.24790576e-02,
          2.83824056e-01, 2.34729543e-01, 0., 0., 0., 0., 0., 0.,
          3.99395004e-02, 0., 8.74781609e-02, 1.07698627e-01, 0.,
          1.04321308e-01, 1.33621752e-01, 1.01322457e-01, 1.94559991e-01,
          0., 0., 5.03436215e-02, 2.74864078e-01, 1.25672132e-01,
          1.45792589e-01, 1.34214610e-01, 2.28662908e-01, 1.60666227e-01,
          0., 0., 1.29165053e-01, 0., 1.08659409e-01, 1.06816776e-01,
          1.85093313e-01, 1.23573460e-01, 0., 0., 0., 0., 0., 0.,
          2.95977026e-01, 3.46691489e-01, 9.33509916e-02, 0., 0., 0., 0.,
          0. ]
      - [ 7.62584060e-03, 1.27766669e-01, 2.09638327e-01, 2.40891740e-01,
          1.03040114e-01, 0., 0., 0., 0., 0., 0., 2.34967917e-01,
          1.33699790e-01, 1.40602082e-01, 9.11897048e-02, 9.32047591e-02,
          1.29580393e-01, 1.34219870e-01, 2.01474223e-02, 1.51141062e-01,
          1.35232210e-01, 1.56842008e-01, 9.23691317e-02, 0., 0., 0., 0.,
          0., 1.84363753e-01, 2.15987340e-01, 2.01317579e-01,
          1.34385213e-01, 0., 1.61046669e-01, 1.40170097e-01, 0.,
          2.29300067e-01, 1.43890411e-01, 1.71506003e-01, 1.26788154e-01,
          1.32406116e-01, 2.10113868e-01, 0., 9.06308740e-02,
          1.20801464e-01, 9.87713709e-02, 0., 7.89437667e-02, 0.,
          8.64644274e-02, 1.35494918e-01, 0., 0., 4.71394137e-02,
          1.73533037e-01, 1.18065186e-01, 2.21157417e-01, 1.83845103e-01,
          1.97689936e-01, 1.33607388e-01, 0., 1.22754663e-01,
          7.57877231e-02, 1.22749671e-01 ]
      - [ 1.98368698e-01, 2.30325788e-01, 1.12321727e-01, 9.64173824e-02,
          9.86401141e-02, 5.88380843e-02, 1.61635488e-01, 8.97473916e-02,
          1.75033420e-01, 2.07737222e-01, 0., 0., 2.39568781e-02, 0.,
          3.65809426e-02, 1.49635762e-01, 2.16049686e-01, 8.94904435e-02,
          0., 1.24512665e-01, 0., 1.11763366e-01, 0., 0., 0., 0., 0., 0.,
          0., 2.40042448e-01, 2.59801894e-01, 1.73405588e-01,
          1.90377831e-01, 2.48868182e-01, 6.37539327e-02, 9.57585052e-02,
          0., 1.78699374e-01, 1.39030308e-01, 1.60512716e-01,
          1.95514008e-01, 8.79772678e-02, 0., 0., 0., 0., 1.94134153e-02,
          0., 4.61281613e-02, 6.13559447e-02, 1.49274185e-01, 0., 0., 0.,
          6.26085401e-02, 2.02112779e-01, 2.52851188e-01, 2.31194779e-01,
          2.46575356e-01, 8.73103663e-02, 9.39044207e-02, 0., 0., 0. ]
      - [ 1.25373483e-01, 1.71996251e-01, 3.00697505e-01, 9.76242051e-02,
          8.43075514e-02, 5.82865365e-02, 8.55262950e-02, 0., 0., 0.,
          9.22830403e-02, 7.48694986e-02, 0., 9.25626159e-02, 0.,
          6.45096377e-02, 1.83788747e-01, 1.14020467e-01, 0., 0., 0.,
          6.39126077e-02, 0., 7.06209317e-02, 5.67118488e-02, 0., 0., 0.,
          2.61345983e-01, 1.73214704e-01, 1.84347630e-01, 9.08082277e-02,
          1.10608280e-01, 1.24924973e-01, 7.93747455e-02, 1.94736287e-01,
          2.14898646e-01, 1.16927817e-01, 1.48969442e-01, 8.02385956e-02,
          2.41491899e-01, 1.81211114e-01, 1.53775349e-01, 0.,
          6.00762293e-02, 9.31054130e-02, 9.32093039e-02, 6.92972243e-02,
          0., 1.25037029e-01, 0., 1.37304246e-01, 4.69245091e-02,
          1.77812472e-01, 2.02515215e-01, 1.42989397e-01, 1.47406429e-01,
          1.76451638e-01, 1.71566516e-01, 1.88968703e-01, 1.74076885e-01,
          1.05611928e-01, 1.41878709e-01, 0. ]
      - [ 1.93324253e-01, 2.16453418e-01, 1.53889254e-01, 5.32931127e-02,
          1.33683518e-01, 0., 0., 0., 1.94581702e-01, 1.18217960e-01,
          8.73427391e-02, 6.15871288e-02, 0., 0., 0., 1.29195079e-01,
          1.40421197e-01, 3.61487782e-03, 2.43947189e-02, 0., 0.,
          8.71271938e-02, 1.34577751e-01, 2.15565965e-01, 1.27631247e-01,
          0., 0., 0., 1.27050281e-01, 1.94395214e-01, 1.06045343e-01,
          2.76158392e-01, 1.81946591e-01, 9.56406817e-03, 0., 0.,
          2.50407070e-01, 1.15246512e-01, 1.78639084e-01, 1.98503569e-01,
          9.07484889e-02, 3.43705192e-02, 0., 1.93085536e-01,
          9.19777229e-02, 1.01810053e-01, 0., 8.86891782e-02,
          2.14499757e-01, 1.32693857e-01, 1.65114716e-01, 1.29189417e-01,
          0., 3.24154869e-02, 1.23672681e-02, 1.26779675e-01,
          2.47121975e-01, 1.94007173e-01, 1.58889040e-01, 1.96250558e-01,
          0., 0., 0., 0. ]
      - [ 1.86144486e-01, 5.00808172e-02, 3.09921056e-01, 1.36785030e-01,
          0., 0., 0., 0., 0., 0., 1.35674715e-01, 1.47910282e-01,
          1.25357687e-01, 1.03524990e-01, 7.25669935e-02, 5.92516139e-02,
          1.21421225e-01, 5.74653037e-02, 1.47942707e-01, 1.58420324e-01,
          1.67947233e-01, 0., 0., 0., 0., 0., 0., 2.49861047e-01,
          1.65576890e-01, 1.50194511e-01, 1.63141817e-01, 0., 0.,
          1.03648774e-01, 3.70514095e-02, 8.73809010e-02, 1.83942601e-01,
          1.28990203e-01, 2.32145056e-01, 1.90465927e-01, 1.48713946e-01,
          1.29380360e-01, 0., 0., 7.98531026e-02, 1.22544654e-01, 0.,
          1.15090281e-01, 1.70418933e-01, 1.62141308e-01, 1.05037965e-01,
          0., 0., 0., 1.45704210e-01, 1.49253100e-01, 2.37948105e-01,
          1.76430807e-01, 2.32391909e-01, 4.70941775e-02, 1.29458085e-01,
          1.02997974e-01, 0., 1.58848897e-01 ]
      - [ 2.78174490e-01, 2.07107157e-01, 1.75678298e-01, 7.86401182e-02,
          0., 0., 0., 9.96615440e-02, 9.55496579e-02, 1.37217969e-01, 0.,
          7.24026412e-02, 0., 0., 0., 6.46648258e-02, 2.71833003e-01,
          1.08847819e-01, 1.02514021e-01, 0., 0., 1.03760205e-01,
          5.70456237e-02, 0., 0., 0., 7.05198720e-02, 1.99008361e-01,
          9.89980549e-02, 1.71910942e-01, 1.60966650e-01, 1.95486903e-01,
          0., 1.63964346e-01, 1.55814111e-01, 0., 1.65312767e-01,
          1.40918195e-01, 2.27382123e-01, 2.52776206e-01, 1.38356403e-01,
          0., 0., 1.70947760e-01, 0., 0., 0., 9.44865122e-02,
          1.80070758e-01, 0., 0., 3.33025455e-02, 0., 0., 0.,
          1.92028116e-02, 3.98405313e-01, 1.64755657e-01, 9.01718140e-02,
          1.43814534e-01, 9.34388265e-02, 0., 9.20710787e-02, 0. ]
      - [ 1.31433398e-01, 1.46260604e-01, 1.86798126e-01, 2.08582938e-01,
          1.94083750e-01, 8.22967142e-02, 6.31698668e-02, 7.78630897e-02,
          0., 7.62865618e-02, 1.27992406e-01, 1.35577142e-01,
          1.33543715e-01, 0., 1.79607309e-02, 1.17071413e-01,
          1.22571625e-01, 1.67261362e-01, 1.08011469e-01, 9.67375636e-02,
          8.75275657e-02, 9.67074335e-02, 5.33641316e-02, 9.63485688e-02,
          0., 1.41821355e-01, 1.93133309e-01, 1.74077824e-01,
          1.36952400e-01, 1.75736949e-01, 1.52724594e-01, 5.82414418e-02,
          0., 9.94987041e-02, 1.01696447e-01, 1.70440763e-01,
          2.02391461e-01, 1.74615771e-01, 1.39052212e-01, 1.41816586e-01,
          9.50859115e-02, 1.18397981e-01, 0., 0., 1.87985495e-01,
          9.75431725e-02, 8.10047910e-02, 4.67110574e-02, 1.04746573e-01,
          1.04877435e-01, 1.57044113e-01, 4.33562659e-02, 5.45530356e-02,
          0., 1.64161190e-01, 1.22121438e-01, 1.59251079e-01,
          1.46761626e-01, 1.20978884e-01, 1.84983552e-01, 1.77630603e-01,
          1.50007874e-01, 1.36894032e-01, 0. ]
      - [ 2.44474694e-01, 1.80149660e-01, 2.12809399e-01, 0., 0.,
          1.08558744e-01, 0., 4.98374887e-02, 7.91755244e-02,
          7.76014999e-02, 1.90334201e-01, 6.50929287e-02, 0., 0., 0.,
          1.02815643e-01, 6.66384846e-02, 9.70550701e-02, 7.33261928e-02,
          1.16957173e-01, 2.08459660e-01, 9.95470062e-02, 1.09683424e-01,
          9.00092870e-02, 0., 1.09246679e-01, 1.09919116e-01,
          1.40857264e-01, 2.04163402e-01, 1.97915480e-01, 1.36974528e-01,
          1.14043623e-01, 0., 0., 1.46091253e-01, 9.48119387e-02,
          1.77070841e-01, 2.04220563e-01, 1.88581735e-01, 4.07750420e-02,
          1.17003240e-01, 5.38701080e-02, 2.08453894e-01, 1.28103241e-01,
          1.20071858e-01, 9.48034003e-02, 0., 2.82409098e-02,
          1.47002965e-01, 1.35111660e-01, 1.15520760e-01, 1.53107256e-01,
          2.74983682e-02, 0., 1.57708660e-01, 1.37405530e-01,
          1.57946348e-01, 1.25578791e-01, 1.70031711e-01, 2.41456032e-01,
          0., 3.66759785e-02, 8.20830241e-02, 1.53478637e-01 ]
      - [ 1.53286174e-01, 2.01241732e-01, 2.36519575e-01, 0., 0.,
          1.19397260e-01, 0., 0., 1.18220106e-01, 0., 1.24566004e-01,
          3.02976761e-02, 0., 1.13205738e-01, 1.37004092e-01,
          1.53034598e-01, 1.88322619e-01, 2.16953874e-01, 0., 0., 0., 0.,
          0., 0., 0., 0., 0., 0., 1.32013872e-01, 1.82223201e-01,
          1.54641032e-01, 2.17359886e-01, 7.97952265e-02, 0.,
          1.04405649e-01, 2.37401366e-01, 1.91088960e-01, 1.91932887e-01,
          1.60368338e-01, 1.28213868e-01, 1.48635566e-01, 1.51732460e-01,
          1.96874410e-01, 0., 0., 0., 0., 0., 1.01931486e-02,
          1.70585439e-01, 0., 0., 0., 1.15123473e-01, 1.21617183e-01,
          1.26139730e-01, 1.72076479e-01, 3.87228340e-01, 1.27806455e-01,
          1.15030766e-01, 0., 1.00725882e-01, 0., 1.03083454e-01 ]
      - [ 2.37544641e-01, 1.01474360e-01, 8.85343850e-02, 1.81176022e-01,
          6.13926537e-03, 1.69516653e-01, 1.69231117e-01, 1.68174133e-01,
          0., 0., 0., 0., 0., 0., 7.30085839e-03, 1.58628479e-01,
          1.56375140e-01, 0., 0., 1.06748812e-01, 0., 7.69684315e-02, 0.,
          0., 0., 0., 0., 0., 1.93887815e-01, 2.20530674e-01,
          2.37072766e-01, 2.25229144e-01, 3.02619934e-01, 1.46750867e-01,
          9.74334255e-02, 0., 1.05954289e-01, 1.07432768e-01,
          1.50658563e-01, 2.22088382e-01, 2.71965802e-01, 3.36398818e-02,
          0., 0., 0., 0., 0., 5.76878525e-02, 0., 0., 1.04524612e-01, 0.,
          0., 0., 9.18034371e-03, 9.57783684e-02, 4.12159353e-01,
          1.07496247e-01, 7.95705467e-02, 7.19499439e-02, 1.20501146e-01,
          0., 1.09239116e-01, 1.06639251e-01 ]
      - [ 1.26844451e-01, 2.94170618e-01, 1.92952573e-01, 0.,
          3.76696177e-02, 0., 0., 0., 5.18514216e-02, 2.76096612e-01, 0.,
          0., 0., 0., 0., 0., 1.85185865e-01, 3.88008915e-02,
          1.92135513e-01, 1.05048947e-01, 1.33428991e-01, 6.22654222e-02,
          1.18695900e-01, 1.32258371e-01, 0., 1.33749202e-01,
          7.69231617e-02, 1.28304660e-01, 1.85667381e-01, 2.23767012e-01,
          1.27540097e-01, 1.30717561e-01, 5.75198941e-02, 1.22490503e-01,
          1.43785700e-01, 2.12074354e-01, 1.34195730e-01, 1.44604743e-01,
          1.21169142e-01, 1.83521807e-02, 1.16602525e-01, 2.26615563e-01,
          0., 0., 0., 0., 0., 0., 0., 8.04590806e-02, 2.20834404e-01,
          1.10341467e-01, 8.51174165e-03, 6.90562576e-02, 8.15421641e-02,
          1.28057286e-01, 1.13626666e-01, 1.79994866e-01, 2.52888620e-01,
          2.64927447e-01, 8.51174165e-03, 0., 8.33740532e-02, 0. ]
      - [ 1.72996446e-01, 2.71432519e-01, 1.75044090e-01, 0., 0., 0., 0.,
          0., 0., 7.52700120e-02, 1.42873093e-01, 6.65703565e-02,
          1.36214718e-01, 8.65990594e-02, 1.02448709e-01, 7.26558492e-02,
          1.41888320e-01, 3.03989857e-01, 1.10737830e-01, 0., 0.,
          4.56479825e-02, 4.90136370e-02, 0., 0., 0., 7.26719350e-02,
          2.11782113e-01, 1.42278358e-01, 1.30626872e-01, 1.00914396e-01,
          1.05521172e-01, 1.07505374e-01, 1.21244423e-01, 0.,
          1.48340881e-01, 1.28677562e-01, 1.35528862e-01, 1.48600951e-01,
          1.92696556e-01, 2.32728973e-01, 1.59513623e-01, 0., 0.,
          9.13506597e-02, 5.19824885e-02, 7.29730055e-02, 0., 0., 0., 0.,
          2.17876539e-01, 2.01525569e-01, 1.51414335e-01, 1.16091207e-01,
          0., 1.50020629e-01, 1.86651051e-01, 9.95796472e-02,
          3.53183836e-01, 2.23695710e-02, 0., 0., 0. ]
      - [ 6.31939843e-02, 2.71026582e-01, 2.22522140e-01, 0., 0., 0., 0.,
          0., 0., 1.40798045e-02, 2.23369598e-01, 1.20432429e-01,
          9.17216614e-02, 1.19490467e-01, 1.05724424e-01, 6.32470921e-02,
          1.49840653e-01, 1.57849923e-01, 1.98399082e-01, 1.70476705e-01,
          0., 0., 0., 0., 0., 1.12746805e-01, 1.43971831e-01,
          1.44494966e-01, 9.65437740e-02, 1.30579084e-01, 1.14628017e-01,
          1.49687901e-01, 1.63133636e-01, 0., 1.18013181e-01,
          9.86654013e-02, 1.02505766e-01, 1.53749362e-01, 1.79296434e-01,
          2.31381521e-01, 1.96897149e-01, 1.96678061e-02, 3.15408595e-02,
          1.34617731e-01, 6.69069290e-02, 1.03045233e-01, 0.,
          1.07390970e-01, 0., 1.33362696e-01, 1.36939541e-01,
          9.56725478e-02, 0., 4.58744317e-02, 2.40510270e-01,
          7.59016052e-02, 1.96720794e-01, 1.86185256e-01, 1.89519525e-01,
          1.11907572e-01, 1.20692171e-01, 1.80985048e-01, 5.48277348e-02,
          0. ]
      - [ 1.63073644e-01, 2.09335923e-01, 1.17615618e-01, 1.64239362e-01,
          1.68790355e-01, 0., 6.59703463e-02, 8.79558921e-02,
          9.20312703e-02, 1.75823182e-01, 6.70733675e-02, 8.04584995e-02,
          1.65256247e-01, 0., 7.75911659e-02, 7.40067586e-02,
          1.29460633e-01, 0., 0., 1.26876846e-01, 1.83081374e-01,
          8.51850212e-02, 7.14637861e-02, 8.73445943e-02, 1.49877310e-01,
          1.00215264e-01, 0., 1.67218000e-01, 1.70309618e-01,
          1.86956376e-01, 8.14633071e-02, 2.00923771e-01, 0., 0., 0., 0.,
          1.97023109e-01, 2.63034344e-01, 1.51016980e-01, 1.24687262e-01,
          0., 0., 0., 0., 1.58664703e-01, 1.96229726e-01, 1.79666266e-01,
          0., 1.24863401e-01, 3.84471714e-02, 1.78376675e-01,
          2.32108355e-01, 2.08234191e-02, 0., 0., 8.85692388e-02,
          1.48792669e-01, 1.12706229e-01, 2.33729780e-01, 2.40769714e-01,
          2.08234191e-02, 0., 0., 0. ]
      - [ 7.08373412e-02, 1.08234547e-01, 2.99515247e-01, 1.11401245e-01,
          0., 0., 0., 1.31975532e-01, 3.42507586e-02, 1.02151416e-01,
          1.08511612e-01, 1.71445087e-01, 0., 8.23294222e-02,
          1.37686238e-01, 1.32209107e-01, 7.13709891e-02, 1.00665025e-01,
          7.70174265e-02, 0., 1.19674526e-01, 1.98985279e-01,
          1.05852708e-01, 0., 0., 0., 3.79458368e-02, 0., 0.,
          3.01353782e-01, 2.11851656e-01, 0., 0., 2.58921646e-02,
          1.93735510e-01, 2.19343945e-01, 1.38580024e-01, 9.77505594e-02,
          5.85699901e-02, 1.38310835e-01, 3.03268563e-02, 6.98141903e-02,
          2.77683377e-01, 2.13411286e-01, 0., 0., 0., 0., 7.28755891e-02,
          8.37612078e-02, 7.84155652e-02, 9.67801213e-02, 1.38339087e-01,
          2.28642613e-01, 1.95000738e-01, 9.54932794e-02, 1.20511606e-01,
          1.12311333e-01, 1.24100119e-01, 1.70871913e-01, 1.96836114e-01,
          1.13051556e-01, 9.26259458e-02, 0. ]
      - [ 2.57984549e-01, 3.84355821e-02, 1.41641140e-01, 9.34648216e-02,
          0., 9.12228897e-02, 1.31343812e-01, 2.24299759e-01,
          1.31130055e-01, 0., 0., 0., 0., 0., 0., 1.29997537e-01,
          1.56516507e-01, 0., 0., 1.49341896e-01, 1.17962599e-01, 0.,
          1.03949659e-01, 0., 0., 0., 6.90853447e-02, 0., 2.47462615e-01,
          1.75104946e-01, 1.74062684e-01, 1.94121003e-01, 2.98734605e-01,
          1.86453477e-01, 8.56849179e-02, 4.99712378e-02, 1.04429439e-01,
          1.23026609e-01, 4.74979095e-02, 1.10839106e-01, 3.24982464e-01,
          3.08833253e-02, 0., 0., 0., 0., 0., 0., 1.46473512e-01, 0.,
          1.48959950e-01, 0., 0., 0., 0., 5.33589050e-02, 3.87881309e-01,
          1.28520206e-01, 1.14985637e-01, 8.03299770e-02, 7.54644051e-02,
          1.31907016e-01, 0., 1.40682817e-01 ]
      - [ 1.23067066e-01, 1.54487297e-01, 2.19387367e-01, 1.95879743e-01,
          0., 1.23500273e-01, 2.86949221e-02, 1.22242697e-01, 0.,
          4.96413186e-02, 1.57577828e-01, 0., 0., 0., 2.08195746e-01,
          5.03507294e-02, 2.05920115e-01, 5.81275634e-02, 0.,
          5.62015064e-02, 0., 0., 0., 1.51184872e-01, 0., 8.84666592e-02,
          0., 9.15812850e-02, 1.11745968e-01, 1.33491918e-01,
          1.92904964e-01, 2.13293776e-01, 0., 1.36339292e-01,
          1.41134426e-01, 1.63195238e-01, 1.45228460e-01, 1.36834994e-01,
          1.39081925e-01, 1.70297951e-01, 1.17991537e-01, 2.57676512e-01,
          0., 9.64674801e-02, 0., 9.86992046e-02, 8.63165110e-02,
          9.73972753e-02, 8.22191313e-02, 1.50824532e-01, 0.,
          1.08923055e-01, 0., 1.76101267e-01, 1.63902119e-01,
          1.52618274e-01, 1.68619350e-01, 2.21932381e-01, 1.66884378e-01,
          1.90122917e-01, 0., 1.34485170e-01, 9.09613222e-02,
          9.52951238e-02 ]
      - [ 0., 1.98347867e-01, 2.73407847e-01, 1.51276737e-01, 0., 0., 0.,
          0., 0., 1.39148563e-01, 1.94715202e-01, 1.21574849e-01, 0., 0.,
          0., 0., 1.33545399e-01, 1.59041863e-02, 0., 1.18594356e-01,
          1.58809051e-01, 1.18696965e-01, 1.01607144e-01, 7.19473362e-02,
          0., 0., 1.63579937e-02, 1.93733230e-01, 1.61773860e-01,
          1.95967004e-01, 1.25632674e-01, 1.09168775e-01, 0.,
          1.03199994e-02, 2.23026276e-02, 2.23848969e-01, 1.69117048e-01,
          1.32728830e-01, 1.72209918e-01, 1.34826079e-01, 2.41649523e-02,
          1.26967490e-01, 7.60494247e-02, 1.95597187e-01, 1.50333509e-01,
          1.75853863e-01, 1.08016439e-01, 3.40953097e-02, 9.15162936e-02,
          0., 0., 2.16716975e-01, 1.21746935e-01, 7.08059594e-02,
          9.94721800e-02, 1.85452670e-01, 2.40536690e-01, 1.13623783e-01,
          1.04208797e-01, 1.24198720e-01, 4.19806503e-02, 1.35564625e-01,
          1.32744417e-01, 2.18593881e-01 ]
      - [ 1.80516988e-01, 2.11026207e-01, 1.57218173e-01, 0., 0., 0., 0.,
          0., 0., 0., 0., 0., 0., 1.45390764e-01, 1.36607260e-01,
          2.20582142e-01, 3.67585808e-01, 1.03008077e-02, 0., 0., 0., 0.,
          0., 0., 0., 0., 0., 0., 0., 1.54620543e-01, 8.63301679e-02,
          2.34916553e-01, 5.65730035e-02, 0., 9.97511446e-02,
          1.42290041e-01, 5.61127178e-02, 1.03211619e-01, 2.55153567e-01,
          2.61217356e-01, 2.63715386e-01, 1.47900106e-02, 0., 0., 0., 0.,
          8.11541006e-02, 1.41548738e-01, 1.09615937e-01, 0.,
          3.02628856e-02, 0., 0., 0., 0., 0., 4.67740655e-01,
          9.01747644e-02, 1.33541495e-01, 1.12347350e-01, 1.57882571e-01,
          0., 0., 1.25643313e-01 ]
      - [ 1.01491645e-01, 1.41827062e-01, 2.69246280e-01, 2.46922940e-01,
          6.90347552e-02, 0., 0., 0., 0., 0., 0., 1.91771299e-01,
          1.83411479e-01, 8.70448127e-02, 4.89737429e-02, 7.30058476e-02,
          7.75878951e-02, 1.53498963e-01, 2.12998062e-01, 0., 0., 0., 0.,
          0., 7.75878951e-02, 0., 1.30762860e-01, 1.82539076e-01,
          1.41461119e-01, 1.40408173e-01, 1.41115606e-01, 9.54955220e-02,
          0., 0., 6.90561756e-02, 1.48857534e-01, 2.60299027e-01,
          1.56907767e-01, 1.48156866e-01, 1.26116082e-01, 1.35240391e-01,
          1.42839938e-01, 1.70635581e-01, 0., 1.00101426e-01,
          8.90346318e-02, 1.01611942e-01, 0., 1.78693503e-01,
          1.73849598e-01, 0., 0., 7.32455924e-02, 0., 1.50640056e-01,
          1.51975065e-01, 1.44626439e-01, 2.64478922e-01, 1.97144255e-01,
          0., 1.38374001e-01, 1.16011925e-01, 1.21318482e-01,
          4.33498286e-02 ]
      - [ 7.17742741e-02, 1.11937322e-01, 1.70328930e-01, 2.32089445e-01,
          1.34344220e-01, 5.75560145e-02, 0., 1.05380081e-01, 0.,
          6.34632930e-02, 9.16012824e-02, 1.08285025e-01, 0., 0.,
          1.89297438e-01, 1.44701302e-01, 2.05370948e-01, 1.28715023e-01,
          0., 0., 1.27198115e-01, 1.02669366e-01, 7.96727166e-02,
          7.61677101e-02, 1.15418516e-01, 1.19208731e-01, 9.08640325e-02,
          8.54874924e-02, 2.14287341e-01, 1.21001050e-01, 1.78621486e-01,
          1.29877880e-01, 0., 3.66233662e-03, 3.87171917e-02,
          2.59410262e-01, 2.10162222e-01, 1.07658803e-01, 8.75293463e-02,
          1.25254452e-01, 7.54339099e-02, 1.10420175e-01, 1.14745580e-01,
          2.80590534e-01, 0., 0., 0., 0., 1.38578778e-02, 8.70210305e-02,
          9.40959528e-02, 7.55139589e-02, 1.22194938e-01, 1.31978124e-01,
          2.24693328e-01, 1.22707397e-01, 1.40262917e-01, 1.20475508e-01,
          1.51264995e-01, 1.75207078e-01, 1.26621693e-01, 1.49057925e-01,
          1.34584650e-01, 1.18204221e-01 ]
      - [ 1.92855969e-01, 4.91551161e-02, 1.27278373e-01, 2.26469249e-01,
          2.03775033e-01, 4.54093553e-02, 0., 0., 0., 0., 0., 0.,
          2.30849281e-01, 1.87121943e-01, 9.94884372e-02, 1.62809029e-01,
          1.64234966e-01, 1.62701309e-01, 2.42471740e-01, 0., 0., 0., 0.,
          0., 0., 1.52630821e-01, 1.62734583e-01, 8.37614983e-02,
          1.32290572e-01, 8.80265608e-02, 1.42185032e-01, 2.39232019e-01,
          0., 3.09338104e-02, 1.37153700e-01, 1.78780749e-01,
          1.70629516e-01, 1.67412996e-01, 1.69488072e-01, 2.39311740e-01,
          1.56618714e-01, 4.67192121e-02, 0., 0., 2.23842338e-02,
          4.65865918e-02, 0., 4.36030813e-02, 0., 6.71993643e-02, 0.,
          1.24392256e-01, 6.11906834e-02, 8.53751227e-02, 0.,
          3.00252028e-02, 0., 2.60613501e-01, 3.56200039e-01, 0., 0., 0.,
          0., 0. ]
      - [ 3.11036129e-02, 1.81044891e-01, 2.84049153e-01, 7.01685920e-02,
          0., 0., 0., 0., 0., 0., 1.78808942e-01, 6.69705272e-02,
          1.37216628e-01, 9.35134217e-02, 7.12257996e-02, 1.23639733e-01,
          8.37896243e-02, 1.20178036e-01, 1.18458286e-01, 8.27545822e-02,
          1.49468407e-01, 1.97645411e-01, 2.63363905e-02, 0., 0., 0., 0.,
          1.33279234e-01, 1.80141538e-01, 1.70538217e-01, 1.90359384e-01,
          1.60849452e-01, 0., 8.01267102e-02, 2.17500597e-01, 0.,
          1.55826539e-01, 1.73582703e-01, 1.42314076e-01, 1.68086931e-01,
          1.77613497e-01, 8.59042853e-02, 1.31010562e-01, 1.27141058e-01,
          8.38717222e-02, 0., 0., 3.63519713e-02, 8.47209394e-02,
          1.35009438e-02, 9.57678258e-02, 2.05807477e-01, 1.03181630e-01,
          5.11761755e-02, 1.76623970e-01, 1.53488055e-01, 1.16818212e-01,
          1.43208697e-01, 2.11629808e-01, 2.55076081e-01, 1.39160663e-01,
          8.86936262e-02, 9.33337510e-02, 7.93287233e-02 ]
      - [ 2.55315065e-01, 1.02312475e-01, 7.17594698e-02, 4.83630858e-02,
          1.90991595e-01, 1.78184927e-01, 6.22506142e-02, 0.,
          1.00729853e-01, 0., 8.70475024e-02, 1.07699901e-01, 0., 0., 0.,
          1.06276982e-01, 1.57866642e-01, 8.11726227e-02, 7.44188651e-02,
          9.16000530e-02, 2.19896123e-01, 7.08114430e-02, 7.85330310e-03,
          0., 0., 8.13572109e-02, 2.34520838e-01, 1.81611404e-01,
          1.70651644e-01, 1.17215820e-01, 1.42815620e-01, 9.52451527e-02,
          2.30428502e-02, 1.36023192e-02, 6.53989762e-02, 2.76821256e-01,
          1.89905733e-01, 1.12128533e-01, 1.60492271e-01, 0.,
          1.03860058e-01, 3.55004817e-02, 1.05364203e-01, 2.40928441e-01,
          6.82524964e-02, 6.36743456e-02, 0., 0., 1.62780926e-01,
          9.98676419e-02, 8.37493688e-02, 8.00304711e-02, 7.95204937e-02,
          0., 4.98757102e-02, 2.32253745e-01, 1.64973825e-01,
          1.58145264e-01, 1.15476809e-01, 1.74427867e-01, 1.39579877e-01,
          1.16073474e-01, 1.06324732e-01, 1.98797524e-01 ]
      - [ 1.70421168e-01, 2.20224977e-01, 2.38315478e-01, 0., 0., 0., 0.,
          0., 4.72172238e-02, 2.03085035e-01, 0., 1.64684594e-01, 0., 0.,
          0., 0., 1.88043937e-01, 1.20723136e-01, 1.10986307e-01,
          1.29805133e-01, 9.00210589e-02, 1.10893086e-01, 1.25679970e-01,
          7.70095959e-02, 9.52466503e-02, 4.41172812e-03, 4.07876484e-02,
          2.00342059e-01, 1.43066496e-01, 1.31177649e-01, 1.87141910e-01,
          1.29561946e-01, 1.24614671e-01, 1.47770718e-01, 0.,
          1.54600158e-01, 1.41725466e-01, 1.39779255e-01, 1.76594034e-01,
          2.09173173e-01, 1.53688416e-01, 0., 5.39143570e-02, 0.,
          1.14885047e-01, 1.25420302e-01, 1.12626687e-01, 0.,
          2.07796693e-01, 1.37405187e-01, 0., 0., 0., 0., 0.,
          3.52420099e-02, 3.77358109e-01, 1.09145880e-01, 9.30520967e-02,
          1.17461286e-01, 1.15509458e-01, 1.01749234e-01, 0.,
          1.60404205e-01 ]
      - [ 2.19614252e-01, 1.46900430e-01, 1.41498432e-01, 1.13058217e-01,
          1.86243638e-01, 9.52253938e-02, 0., 0., 1.01975054e-01,
          1.55046925e-01, 1.02401376e-01, 1.67545140e-01, 1.16838336e-01,
          0., 8.75639543e-02, 1.01992562e-01, 1.95720851e-01,
          1.04196571e-01, 1.41913727e-01, 2.21331671e-01, 0., 0., 0., 0.,
          0., 1.25438357e-02, 6.29802048e-02, 1.60497472e-01,
          1.71078950e-01, 1.43868521e-01, 1.63142487e-01, 1.41616911e-01,
          1.41786397e-01, 8.53631049e-02, 1.08152486e-01, 2.08729446e-01,
          1.50449052e-01, 1.20174587e-01, 1.72398519e-02, 1.13548681e-01,
          2.26613864e-01, 1.68266043e-01, 0., 9.39033926e-02,
          1.04247339e-01, 1.01044342e-01, 0., 6.08359203e-02, 0.,
          1.59940779e-01, 1.32435963e-01, 0., 0., 4.44554277e-02,
          1.65074766e-01, 1.33082181e-01, 2.55294681e-01, 2.15911329e-01,
          1.88474059e-01, 9.10900533e-02, 0., 0., 8.29981491e-02,
          7.31988698e-02 ]
      - [ 1.16961291e-02, 1.18583180e-01, 1.71188489e-01, 2.94621140e-01,
          0., 0., 0., 2.09866632e-02, 0., 3.03096138e-02, 3.59637253e-02,
          2.96034068e-01, 9.97979417e-02, 1.34205341e-01, 5.16306013e-02,
          1.17558435e-01, 1.23278588e-01, 2.96446234e-01, 0., 0., 0., 0.,
          0., 0., 1.08233951e-01, 1.09528244e-01, 0., 0., 0., 0.,
          9.39361304e-02, 1.13422982e-01, 1.87479377e-01, 6.67488053e-02,
          0., 1.52330145e-01, 2.32309833e-01, 1.31557778e-01,
          1.15655646e-01, 2.00486809e-01, 1.96135417e-01, 1.57045107e-02,
          0., 1.51757494e-01, 1.74801111e-01, 0., 1.20737344e-01, 0.,
          2.35684603e-01, 1.92252368e-01, 5.79015538e-02, 0., 0., 0., 0.,
          0., 2.71809936e-01, 3.49565059e-01, 0., 0., 0., 0., 0., 0. ]
      - [ 7.37060905e-02, 1.09339200e-01, 1.73302621e-01, 3.11145604e-01,
          0., 0., 0., 0., 0., 0., 0., 2.21452281e-01, 1.36015654e-01,
          1.01091877e-01, 1.13171667e-01, 1.23770840e-01, 1.42699838e-01,
          9.51965228e-02, 1.60506174e-01, 1.95204318e-01, 0., 0., 0., 0.,
          0., 0., 3.43138650e-02, 2.45141655e-01, 1.23089917e-01,
          1.74467847e-01, 1.35111019e-01, 7.49968216e-02, 1.18542649e-01,
          5.84753230e-02, 1.38716772e-01, 6.17847368e-02, 1.91756040e-01,
          1.23963527e-01, 2.01769844e-01, 1.73519522e-01, 1.81191504e-01,
          8.05452615e-02, 0., 1.04838207e-01, 1.69566095e-01,
          8.79320279e-02, 0., 3.01104188e-02, 1.19582780e-01,
          5.23116626e-02, 1.52088031e-01, 1.81129292e-01, 0., 0.,
          3.15775089e-02, 1.62266210e-01, 1.23819359e-01, 2.71748334e-01,
          1.90169364e-01, 1.70060545e-01, 8.20555761e-02, 0.,
          9.43880081e-02, 6.66884109e-02 ]
      - [ 1.22332901e-01, 2.25413427e-01, 1.10954382e-01, 1.38094530e-01,
          2.05093965e-01, 6.83497936e-02, 2.29140241e-02, 0.,
          5.11979163e-02, 1.90296263e-01, 0., 1.20970570e-01,
          1.82893381e-01, 0., 0., 7.77655020e-02, 1.25620231e-01,
          2.38410652e-01, 1.06664136e-01, 1.44526213e-01, 0., 0., 0.,
          5.75286634e-02, 6.37894869e-02, 1.11263663e-01, 1.48411304e-01,
          6.63077533e-02, 1.27230182e-01, 1.66588485e-01, 1.67610422e-01,
          1.25635162e-01, 7.15703592e-02, 1.03485234e-01, 0.,
          1.67785957e-01, 2.41777375e-01, 1.14581808e-01, 8.93784165e-02,
          9.47520360e-02, 9.77342054e-02, 1.95219815e-01, 0.,
          1.66361928e-01, 1.20499358e-01, 8.55538696e-02, 9.73631367e-02,
          6.88858926e-02, 0., 0., 1.47761807e-01, 1.96153805e-01,
          7.26720318e-02, 1.57838598e-01, 1.13186479e-01, 8.67983624e-02,
          1.66713089e-01, 1.96539357e-01, 2.11916089e-01, 2.16321781e-01,
          8.48855451e-02, 0., 6.01323545e-02, 0. ]
      - [ 1.64220154e-01, 1.24078102e-01, 1.43108830e-01, 1.26435846e-01,
          7.36181736e-02, 1.10302478e-01, 1.35637477e-01, 2.17008546e-01,
          0., 0., 0., 0., 0., 0., 1.56187117e-01, 1.70229867e-01,
          2.37533763e-01, 9.72955581e-03, 0., 1.03694998e-01, 0.,
          8.12202096e-02, 0., 0., 0., 0., 0., 0., 1.28502041e-01,
          1.98525250e-01, 2.50337064e-01, 1.31569833e-01, 2.06113145e-01,
          1.92621514e-01, 1.60334751e-01, 1.07236408e-01, 1.08950019e-01,
          8.56175795e-02, 8.20079744e-02, 1.93572894e-01, 3.08546782e-01,
          3.12413983e-02, 0., 0., 0., 0., 0., 1.38463646e-01,
          7.93432519e-02, 1.03156477e-01, 0., 0., 0., 0., 0.,
          6.13467619e-02, 4.08191264e-01, 1.44242465e-01, 1.25872046e-01,
          1.32311136e-01, 0., 7.62483627e-02, 1.20013900e-01,
          1.33112416e-01 ]
      - [ 2.94017166e-01, 2.68302023e-01, 2.94999126e-02, 0., 0., 0., 0.,
          0., 0., 0., 0., 0., 0., 8.26240554e-02, 0., 0., 2.02959210e-01,
          1.61429197e-01, 2.56631095e-02, 0., 8.50278363e-02, 0.,
          9.54717770e-02, 0., 0., 0., 8.77485052e-02, 8.85037333e-02,
          1.63547963e-01, 1.72389850e-01, 1.52493194e-01, 1.86175644e-01,
          1.17690153e-01, 1.53551191e-01, 1.15590915e-01, 0.,
          1.29896790e-01, 1.49680272e-01, 1.31486624e-01, 1.17731139e-01,
          3.64087850e-01, 1.05205514e-01, 1.06408909e-01, 0., 0., 0., 0.,
          0., 1.33079216e-01, 0., 1.04925372e-01, 0., 1.22993261e-01,
          2.01137796e-01, 1.46737888e-01, 2.18397588e-01, 2.13553220e-01,
          1.60577253e-01, 1.84772953e-01, 1.76517427e-01, 9.70928371e-02,
          1.50536105e-01, 0., 1.45681337e-01 ]
      - [ 5.06534912e-02, 9.40683708e-02, 1.23780563e-01, 2.14525744e-01,
          2.12559208e-01, 1.76892970e-02, 0., 0., 0., 5.78787597e-03,
          1.42747881e-02, 2.43569508e-01, 1.83379486e-01, 1.11693457e-01,
          9.11970660e-02, 4.95770127e-02, 1.16653211e-01, 1.93919450e-01,
          2.66915023e-01, 0., 5.49564287e-02, 4.86072563e-02,
          4.49103303e-02, 4.71526086e-02, 0., 0., 7.25802705e-02,
          1.94430709e-01, 1.66532710e-01, 1.38135254e-01, 1.12907417e-01,
          1.51118055e-01, 1.29102632e-01, 1.03952937e-01, 1.31066650e-01,
          5.00043035e-02, 1.87747166e-01, 2.07764059e-01, 1.96955189e-01,
          2.24843293e-01, 1.19216768e-02, 0., 0., 0., 8.67913365e-02,
          9.73607451e-02, 9.31595415e-02, 1.95244253e-01, 0., 0.,
          1.85998037e-01, 0., 0., 0., 0., 0., 0., 3.38861465e-01,
          2.67457485e-01, 2.84037851e-02, 0., 0., 8.44233781e-02, 0. ]
      - [ 0., 7.22099319e-02, 1.04373418e-01, 3.33033770e-01,
          1.63628265e-01, 0., 0., 0., 0., 5.79685112e-03, 3.41059938e-02,
          3.07179123e-01, 1.94333434e-01, 1.18386738e-01, 8.40235725e-02,
          7.46527910e-02, 7.51259103e-02, 1.18165113e-01, 2.77495325e-01,
          0., 0., 0., 0., 0., 5.22737391e-02, 8.27120394e-02,
          2.23754734e-01, 0., 9.25365984e-02, 8.00443962e-02,
          9.01341885e-02, 8.71852115e-02, 1.42273366e-01, 1.45783089e-02,
          0., 7.41676763e-02, 2.60275573e-01, 2.05191180e-01,
          1.32518142e-01, 1.15456484e-01, 1.42428458e-01, 0., 0., 0.,
          2.35143185e-01, 1.21311888e-01, 7.98859522e-02, 0., 0.,
          2.09389418e-01, 1.97970718e-01, 0., 0., 0., 0., 0., 0.,
          1.98683873e-01, 3.34016532e-01, 4.29166816e-02, 0., 0., 0., 0. ]
      - [ 1.21491000e-01, 1.38441801e-01, 2.55141079e-01, 2.86706895e-01,
          0., 0., 0., 0., 8.35379884e-02, 0., 0., 0., 2.19220966e-01,
          9.86113995e-02, 1.06793426e-01, 3.15540433e-02, 9.30058286e-02,
          1.88709751e-01, 2.14134440e-01, 0., 0., 0., 0., 0.,
          8.59452635e-02, 8.40015486e-02, 1.36423007e-01, 1.08684406e-01,
          1.89314023e-01, 2.30584145e-01, 1.45497158e-01, 6.51864633e-02,
          0., 0., 1.16343893e-01, 0., 2.08214045e-01, 1.47214293e-01,
          1.46023721e-01, 5.67248426e-02, 1.49109289e-01, 2.32377678e-01,
          1.64999530e-01, 0., 8.36307853e-02, 0., 9.14032385e-02,
          7.43807778e-02, 0., 1.68599918e-01, 4.35017571e-02, 0., 0.,
          1.58113509e-01, 2.15991274e-01, 1.45762563e-01, 1.51643291e-01,
          2.20395982e-01, 1.92173257e-01, 0., 0., 3.80946808e-02,
          1.13582075e-01, 1.36730343e-01 ]
      - [ 3.91747504e-01, 1.40467733e-01, 9.80122834e-02, 3.85518000e-02,
          0., 0., 0., 0., 0., 0., 0., 0., 0., 0., 1.02699976e-02,
          1.77583992e-01, 3.62025976e-01, 2.20745821e-02, 0., 0., 0., 0.,
          0., 0., 0., 0., 0., 0., 0., 1.77615732e-01, 1.83012962e-01,
          2.29040518e-01, 0., 0., 5.40037081e-02, 1.13209054e-01,
          1.15667999e-01, 1.14757255e-01, 1.57192662e-01, 1.98907107e-01,
          3.75201613e-01, 2.78480239e-02, 0., 0., 0., 0., 0., 0., 0., 0.,
          0., 0., 0., 6.05790913e-02, 2.13693574e-01, 3.05739224e-01,
          1.82912424e-01, 2.53830731e-01, 1.06660515e-01, 1.47596136e-01,
          1.14244945e-01, 0., 0., 0. ]
      - [ 1.16361953e-01, 1.44593582e-01, 1.73586622e-01, 1.98957115e-01,
          0., 4.18189168e-02, 0., 0., 0., 0., 1.35787472e-01,
          9.42695141e-02, 1.46517560e-01, 1.57788977e-01, 1.20016895e-01,
          1.27585724e-01, 9.12603512e-02, 2.17391104e-02, 1.15797497e-01,
          1.36790365e-01, 1.92027122e-01, 7.82078356e-02, 1.42886639e-01,
          8.69693682e-02, 1.20379098e-01, 6.03364781e-02, 0., 0.,
          2.02846587e-01, 1.52854472e-01, 1.94420949e-01, 1.33849651e-01,
          0., 1.28266528e-01, 0., 6.52481616e-02, 1.59979016e-01,
          1.68551996e-01, 2.52321601e-01, 1.27936348e-01, 1.77837864e-01,
          2.78626159e-02, 0., 1.11549437e-01, 1.63687542e-01,
          1.41777113e-01, 0., 1.06730349e-01, 1.24484263e-01,
          1.28374219e-01, 1.69439003e-01, 1.30674526e-01, 0., 0.,
          3.73330489e-02, 1.77376032e-01, 1.83130115e-01, 1.66922167e-01,
          1.99870840e-01, 1.87077880e-01, 0., 4.68115024e-02,
          1.30769670e-01, 1.23816013e-01 ]
      - [ 0., 3.04418206e-01, 1.43774897e-01, 1.48671359e-01,
          7.39065260e-02, 1.04830973e-01, 7.19506294e-02, 0.,
          1.94979623e-01, 1.72149450e-01, 0., 0., 0., 0., 0., 0.,
          2.17523903e-01, 2.42758729e-02, 7.21081197e-02, 1.03501700e-01,
          9.85744894e-02, 0., 1.06248982e-01, 0., 0., 5.15633374e-02,
          3.28751281e-02, 2.63042271e-01, 1.46602973e-01, 1.13107421e-01,
          1.51855424e-01, 1.39067739e-01, 9.36499014e-02, 2.74704307e-01,
          1.90735519e-01, 6.80465177e-02, 7.06918240e-02, 1.05077408e-01,
          8.71698260e-02, 1.10624142e-01, 2.98540592e-01, 2.10721567e-02,
          0., 0., 0., 0., 0., 2.59142257e-02, 2.00147152e-01,
          1.42723054e-01, 2.92126630e-02, 0., 0., 0., 0., 4.41268757e-02,
          3.61686736e-01, 1.26404941e-01, 1.16637968e-01, 1.54412225e-01,
          0., 1.37237370e-01, 1.52207062e-01, 0. ]
      - [ 1.65348142e-01, 1.65249780e-01, 2.20127910e-01, 1.36612445e-01,
          1.28825471e-01, 1.52612537e-01, 0., 0., 0., 0., 2.17826366e-02,
          0., 0., 2.09407777e-01, 1.69288903e-01, 1.00488357e-01,
          1.27193063e-01, 1.28869727e-01, 4.55263965e-02, 1.63265243e-01,
          1.83126420e-01, 0., 4.89643812e-02, 0., 0., 0., 0.,
          2.04377845e-01, 2.40213454e-01, 1.44683033e-01, 1.62180454e-01,
          2.01802164e-01, 0., 9.18311924e-02, 7.02615008e-02,
          4.40618582e-02, 0., 1.92047611e-01, 2.14338243e-01,
          2.86977589e-01, 0., 0., 0., 5.31900525e-02, 0., 6.16565607e-02,
          0., 8.93283561e-02, 7.22255781e-02, 1.25132084e-01,
          1.66077927e-01, 0., 0., 0., 1.52301297e-01, 1.38819516e-01,
          1.79366335e-01, 2.07303822e-01, 2.05684721e-01, 2.23955393e-01,
          0., 9.01765525e-02, 9.28428769e-02, 0. ]
      - [ 1.62545115e-01, 2.60655820e-01, 2.30333656e-01, 0., 0., 0., 0.,
          0., 1.49825305e-01, 1.17542751e-01, 1.50266618e-01, 0., 0.,
          4.92952242e-02, 0., 0., 1.52294978e-01, 2.18152571e-02,
          3.62582877e-02, 1.59671232e-01, 9.91572216e-02, 7.74754733e-02,
          4.99844030e-02, 8.68330449e-02, 1.82948530e-01, 1.11196898e-01,
          6.25972599e-02, 5.89677207e-02, 1.69645190e-01, 1.73838541e-01,
          1.99332193e-01, 1.62732467e-01, 0., 7.74092749e-02,
          1.33307472e-01, 1.42764479e-01, 9.60650668e-02, 1.26666993e-01,
          1.62898615e-01, 2.18319237e-01, 1.10841215e-01, 1.18590415e-01,
          1.39622808e-01, 1.34886622e-01, 9.52907130e-02, 6.94810748e-02,
          7.64747113e-02, 1.46009922e-01, 1.56565085e-01, 1.31575808e-01,
          1.81761399e-01, 1.85157984e-01, 0., 0., 8.18651840e-02,
          1.40108436e-01, 1.35477290e-01, 1.98427081e-01, 2.21545160e-01,
          2.13294268e-01, 0., 0., 0., 0. ]
      - [ 3.97923976e-01, 1.52125731e-01, 1.12631351e-01, 7.44674355e-02,
          0., 0., 0., 0., 0., 0., 0., 0., 0., 0., 0., 2.61798501e-02,
          2.39426091e-01, 3.80419418e-02, 0., 0., 9.42801535e-02, 0., 0.,
          0., 1.67320490e-01, 1.05916187e-01, 0., 8.10842514e-02,
          8.06224719e-02, 1.82644099e-01, 2.04209775e-01, 2.61731386e-01,
          0., 0., 0., 1.44717872e-01, 1.17680423e-01, 2.05357388e-01,
          2.00035006e-01, 1.97776675e-01, 2.94723779e-01, 6.13392740e-02,
          0., 0., 0., 0., 0., 0., 1.13136642e-01, 1.04313321e-01,
          7.60743842e-02, 1.12110309e-01, 0., 0., 7.25379586e-02,
          1.92908645e-01, 2.20789894e-01, 2.96692520e-01, 1.50586411e-01,
          1.58534080e-01, 0., 9.80319083e-02, 0., 1.03242904e-01 ]
      - [ 2.76616402e-02, 1.62455618e-01, 1.72967821e-01, 2.49673247e-01,
          1.58673719e-01, 0., 0., 0., 0., 0., 1.33644626e-01,
          1.28221378e-01, 9.08789337e-02, 1.11778989e-01, 9.34433192e-02,
          1.49012133e-01, 0., 1.51401997e-01, 1.10493034e-01,
          1.84550568e-01, 1.23628765e-01, 0., 0., 0., 0., 0.,
          6.38228208e-02, 1.81102142e-01, 2.47805968e-01, 2.00076595e-01,
          6.60472438e-02, 9.73355025e-02, 8.74672309e-02, 9.91158932e-02,
          1.34287745e-01, 1.68584630e-01, 1.79028943e-01, 1.27190426e-01,
          1.56696662e-01, 1.22722536e-01, 1.37638971e-01, 2.26328567e-01,
          1.01128437e-01, 8.90092403e-02, 8.92011374e-02, 1.01079240e-01,
          0., 8.63621086e-02, 0., 8.19712654e-02, 9.83526781e-02,
          7.41434172e-02, 1.05546698e-01, 3.09361536e-02, 2.21254379e-01,
          2.12543145e-01, 9.58124176e-02, 8.80442634e-02, 6.51362389e-02,
          1.83418632e-01, 2.05864280e-01, 1.35723829e-01, 1.19689025e-01,
          9.49611738e-02 ]
      - [ 1.85670689e-01, 1.24208599e-01, 1.96785673e-01, 1.33465365e-01,
          9.45546031e-02, 6.57907650e-02, 0., 7.12501332e-02, 0.,
          7.06907138e-02, 7.32478052e-02, 6.82744682e-02, 0., 0.,
          1.23899207e-01, 1.92752913e-01, 1.29167005e-01, 2.11024061e-01,
          1.18577488e-01, 1.18592456e-01, 1.13544196e-01, 1.00286759e-01,
          6.54919967e-02, 8.75171553e-03, 1.23551033e-01, 0.,
          1.49401173e-01, 1.33673668e-01, 2.46351182e-01, 1.43109277e-01,
          1.28222391e-01, 1.11414328e-01, 6.49951398e-02, 8.06555226e-02,
          7.18092620e-02, 0., 1.55883521e-01, 2.39312902e-01,
          7.20135868e-02, 1.28346980e-01, 1.47387281e-01, 2.36290723e-01,
          9.90846008e-02, 0., 7.62224346e-02, 0., 7.37491846e-02,
          6.92825541e-02, 7.24327341e-02, 6.06555156e-02, 9.80038494e-02,
          1.60891026e-01, 0., 1.99937597e-01, 2.12587953e-01,
          1.31932735e-01, 2.75724232e-02, 1.14168353e-01, 1.68237686e-01,
          1.87579393e-01, 2.03451365e-01, 1.64197430e-01, 0.,
          1.01912312e-01 ]
      - [ 1.39192909e-01, 1.26633301e-01, 1.42501965e-01, 2.57587224e-01,
          0., 0., 0., 0., 0., 0., 0., 0., 1.67619675e-01, 1.60467178e-01,
          1.56587347e-01, 1.88485861e-01, 1.38210371e-01, 1.06978059e-01,
          1.61621824e-01, 1.36889413e-01, 1.28193796e-01, 1.09895267e-01,
          0., 0., 0., 0., 0., 0., 1.54254138e-01, 2.31227070e-01,
          1.78669930e-01, 2.33088657e-01, 5.49903922e-02, 0., 0.,
          1.52545393e-01, 2.10256308e-01, 8.89073536e-02, 1.56187221e-01,
          2.17534065e-01, 2.39369079e-01, 1.07254036e-01, 0., 0., 0.,
          2.63671186e-02, 4.61318083e-02, 5.87698519e-02, 5.44439070e-02,
          5.12201227e-02, 4.72731739e-02, 6.31604493e-02, 0.,
          2.73626056e-02, 2.29606971e-01, 1.51047543e-01, 1.52285650e-01,
          2.60113209e-01, 1.76770106e-01, 2.17318431e-01, 0.,
          2.87819877e-02, 1.01238459e-01, 5.39457947e-02 ]
      - [ 1.36219859e-01, 7.56365061e-02, 1.07227519e-01, 7.22234920e-02,
          3.59663405e-02, 1.69033095e-01, 1.48845658e-01, 1.13300771e-01,
          0., 0., 0., 0., 0., 0., 5.19140586e-02, 1.76718801e-01,
          2.09948778e-01, 9.01872218e-02, 7.70628899e-02, 0.,
          8.63912776e-02, 1.11044094e-01, 1.32872701e-01, 0., 0.,
          2.59872861e-02, 0., 1.94807857e-01, 2.14284956e-01,
          1.34776741e-01, 1.11669093e-01, 6.79702610e-02, 2.17497841e-01,
          0., 7.94820413e-02, 9.45571959e-02, 9.43215787e-02,
          7.97624439e-02, 1.35974914e-01, 2.68148243e-01, 2.31999516e-01,
          0., 0., 0., 0., 0., 0., 2.75515914e-01, 1.39877722e-01,
          9.31529924e-02, 1.63010299e-01, 0., 0., 0., 1.85042024e-01,
          2.08063230e-01, 2.27096885e-01, 2.37692863e-01, 1.00857802e-01,
          3.33487764e-02, 1.05862029e-01, 1.78165928e-01, 1.49489120e-01,
          1.72863007e-01 ]
      - [ 3.22642252e-02, 2.81928629e-01, 1.30853742e-01, 1.11673631e-01,
          4.30799797e-02, 1.13748372e-01, 0., 0., 9.73495692e-02,
          1.00172371e-01, 1.28092811e-01, 0., 0., 0., 7.31773302e-02,
          1.98686644e-01, 6.85261860e-02, 1.30968139e-01, 0.,
          1.11052424e-01, 1.28102243e-01, 7.46512637e-02, 1.22824766e-01,
          5.44223711e-02, 5.14804982e-02, 1.66953608e-01, 9.71991569e-02,
          0., 2.03419030e-01, 1.85868353e-01, 1.43225476e-01,
          1.84217513e-01, 0., 1.32727502e-02, 2.57756598e-02,
          2.21855342e-01, 1.75165817e-01, 1.68544814e-01, 2.08626792e-01,
          1.28843650e-01, 0., 1.00705139e-01, 1.60123199e-01,
          2.22165331e-01, 0., 9.68290716e-02, 0., 3.17479558e-02,
          1.59655869e-01, 1.17202602e-01, 1.31889403e-01, 1.33254886e-01,
          0., 0., 6.40216023e-02, 2.10749969e-01, 1.26193821e-01,
          2.04665676e-01, 1.59007117e-01, 2.12725103e-01, 0.,
          4.17165756e-02, 1.33057207e-01, 1.19553983e-01 ]
      - [ 2.82405704e-01, 1.53605387e-01, 4.65627536e-02, 1.30338386e-01,
          8.21554661e-02, 1.00053117e-01, 7.43724704e-02, 0.,
          1.83910266e-01, 1.00883372e-01, 7.04165250e-02, 1.28318325e-01,
          0., 0., 0., 0., 2.59224206e-01, 1.02043495e-01, 0.,
          1.45747066e-01, 9.47443917e-02, 9.76902395e-02, 1.03226267e-01,
          4.05946299e-02, 0., 0., 0., 1.22897692e-01, 1.47082806e-01,
          1.98414519e-01, 2.18589082e-01, 1.05688564e-01, 1.97995991e-01,
          0., 1.02045268e-01, 1.85639307e-01, 3.65746245e-02,
          1.76413894e-01, 1.16603307e-01, 0., 2.92905629e-01,
          4.15719077e-02, 0., 0., 0., 1.38716221e-01, 1.39125690e-01, 0.,
          0., 1.18491411e-01, 1.29907697e-01, 0., 1.18967459e-01,
          1.25334680e-01, 1.31280169e-01, 1.34940252e-01, 2.37392813e-01,
          2.19765231e-01, 1.88913152e-01, 1.51842549e-01, 7.13093504e-02,
          0., 6.39602020e-02, 0. ]
      - [ 8.02169815e-02, 1.17993847e-01, 1.27228141e-01, 3.29761177e-01,
          0., 3.82001139e-02, 0., 0., 0., 0., 8.93043876e-02,
          3.11915666e-01, 8.42865333e-02, 8.90207961e-02, 1.16228357e-01,
          8.15956146e-02, 2.34917462e-01, 2.32329667e-01, 0., 0., 0., 0.,
          0., 0., 0., 3.88328522e-03, 3.51659507e-02, 4.76130955e-02, 0.,
          5.23196906e-02, 4.90089729e-02, 0., 1.39775410e-01, 0., 0.,
          2.47762352e-01, 2.30179623e-01, 1.25923350e-01, 1.01410992e-01,
          5.05608581e-02, 1.44940093e-01, 2.05327392e-01, 5.02589568e-02,
          1.97257161e-01, 1.01702735e-01, 7.57423788e-02, 8.75401497e-02,
          8.73526856e-02, 1.89660713e-02, 3.04816544e-01, 0., 0., 0., 0.,
          0., 0., 2.77918160e-01, 3.54280770e-01, 0., 0., 0., 0., 0.,
          1.90570783e-02 ]
      - [ 1.68334857e-01, 1.18446201e-01, 1.81462303e-01, 2.28682831e-01,
          0., 0., 0., 0., 1.12534806e-01, 1.53530121e-01, 1.61329731e-01,
          0., 0., 1.11553416e-01, 1.48791701e-01, 1.32489055e-01,
          3.81250829e-01, 6.56045005e-02, 0., 0., 0., 0., 0., 0., 0., 0.,
          0., 8.93486962e-02, 9.06648263e-02, 1.22409329e-01,
          6.57937452e-02, 1.13680810e-01, 1.05991691e-01, 8.28039497e-02,
          1.64799504e-02, 2.34949470e-01, 1.09855019e-01, 1.46817848e-01,
          1.17187060e-01, 1.47643328e-01, 2.64935404e-01, 1.13935038e-01,
          0., 0., 1.30931526e-01, 0., 1.30463913e-01, 1.28116861e-01,
          2.17279598e-01, 4.38226275e-02, 0., 0., 0., 0., 9.91019700e-03,
          6.68492392e-02, 4.46413815e-01, 1.67446092e-01, 0., 0., 0., 0.,
          0., 4.92402762e-02 ]
      - [ 1.53063506e-01, 9.73578840e-02, 1.94739997e-01, 2.28413329e-01,
          1.48684576e-01, 3.28239650e-02, 0., 0., 0., 0., 0., 0.,
          1.67480126e-01, 1.69041812e-01, 8.59528929e-02, 1.50916249e-01,
          1.28388032e-01, 1.05440870e-01, 1.28455848e-01, 1.52244762e-01,
          1.20815799e-01, 9.12172571e-02, 1.30828962e-01, 6.58559278e-02,
          0., 0., 0., 0., 2.01017231e-01, 3.14583451e-01, 1.49638519e-01,
          0., 1.07345477e-01, 1.18158370e-01, 6.22962341e-02, 0., 0.,
          2.07588688e-01, 1.96218699e-01, 1.46440119e-01, 1.85883746e-01,
          1.91284597e-01, 0., 0., 0., 0., 9.48752016e-02, 0.,
          1.36664525e-01, 1.31094918e-01, 8.52391869e-02, 0., 0., 0.,
          1.86325133e-01, 2.44687200e-01, 1.34272799e-01, 1.56214997e-01,
          2.00506628e-01, 1.91079408e-01, 0., 0., 9.44634750e-02,
          1.23588420e-01 ]
      - [ 2.89055765e-01, 1.38451338e-01, 2.53485870e-02, 1.01498798e-01,
          0., 0., 0., 0., 0., 0., 0., 0., 0., 0., 0., 3.21496665e-01,
          4.00587618e-01, 1.82499960e-02, 3.09283528e-02, 0.,
          3.93234715e-02, 2.87579559e-02, 1.51849147e-02, 3.74206975e-02,
          0., 2.25604139e-02, 3.12236194e-02, 1.82499960e-02,
          1.33333609e-01, 9.66636315e-02, 1.75690830e-01, 1.89400718e-01,
          5.77115528e-02, 2.94950008e-02, 0., 0., 9.96078700e-02,
          1.44053504e-01, 1.75417468e-01, 4.18556571e-01, 0., 0., 0., 0.,
          0., 0., 0., 5.35545275e-02, 4.77935411e-02, 0., 0., 0., 0.,
          2.48931609e-02, 0., 3.63676623e-02, 4.52260494e-01,
          1.46392256e-01, 1.14084497e-01, 1.77593440e-01, 4.78040613e-02,
          0., 0., 2.81231739e-02 ]
      - [ 1.66912064e-01, 2.63830781e-01, 2.01422229e-01, 0., 0., 0., 0.,
          0., 1.39483884e-01, 1.92322433e-01, 0., 0., 0., 0., 0., 0.,
          2.07475245e-01, 1.69571340e-01, 5.56094013e-02, 1.01600833e-01,
          0., 0., 1.10321768e-01, 8.70534480e-02, 0., 0., 6.75695986e-02,
          1.03082821e-01, 1.74985453e-01, 1.56342268e-01, 1.69364631e-01,
          1.76566750e-01, 0., 1.62753060e-01, 1.60263717e-01,
          1.61333904e-01, 1.60034373e-01, 1.79430157e-01, 1.47621363e-01,
          1.54639557e-01, 1.54004365e-01, 9.00007710e-02, 1.60883754e-01,
          1.24271229e-01, 1.13269538e-01, 0., 0., 6.10563643e-02,
          1.87722921e-01, 0., 1.41904235e-01, 1.11553155e-01, 0., 0., 0.,
          0., 2.87416071e-01, 3.25552315e-01, 1.03312492e-01,
          1.11002594e-01, 2.11858246e-02, 9.33535248e-02, 8.00699145e-02,
          6.35671616e-02 ]
      - [ 2.46359557e-01, 1.55829832e-01, 1.59520015e-01, 1.34418890e-01,
          1.01954289e-01, 9.36530009e-02, 6.98350966e-02, 8.09089094e-02,
          1.02002636e-01, 1.35109469e-01, 0., 0., 0., 5.15657179e-02,
          1.83442589e-02, 1.86256543e-01, 2.55061030e-01, 2.75015254e-02,
          0., 0., 0., 0., 9.08500031e-02, 9.38958898e-02, 1.47168174e-01,
          0., 1.13077134e-01, 0., 6.26984760e-02, 1.42947212e-01,
          2.35423774e-01, 1.66900471e-01, 4.12531942e-02, 0., 0.,
          1.86632007e-01, 2.57968307e-01, 1.83512524e-01, 1.54815063e-01,
          1.47733882e-01, 2.87570357e-02, 1.26132384e-01, 1.58332020e-01,
          2.46545017e-01, 1.41455397e-01, 5.97734153e-02, 0., 0.,
          8.39162469e-02, 0., 9.77688059e-02, 7.67162517e-02, 0., 0.,
          2.47591645e-01, 1.57285318e-01, 1.83697075e-01, 1.33895442e-01,
          1.31099105e-01, 1.72286153e-01, 9.70268026e-02, 1.22792199e-01,
          7.58936778e-02, 5.96458912e-02 ]
      - [ 2.67268240e-01, 2.68387586e-01, 1.34734660e-01, 0., 0., 0.,
          4.08977792e-02, 0., 1.48167104e-01, 1.77937701e-01,
          5.79190999e-02, 0., 0., 0., 0., 0., 1.84481889e-01,
          6.89198226e-02, 0., 0., 1.42573118e-01, 1.21287912e-01, 0.,
          1.28183171e-01, 1.01653986e-01, 0., 9.77998152e-02,
          1.43493772e-01, 1.42627776e-01, 1.69427305e-01, 1.59576237e-01,
          2.04956070e-01, 5.96897490e-02, 0., 1.60165831e-01,
          1.40891626e-01, 1.84743434e-01, 1.23792544e-01, 2.01441348e-01,
          4.58498597e-02, 1.17663682e-01, 2.36483663e-01, 1.23682737e-01,
          0., 1.07351184e-01, 0., 8.79648179e-02, 0., 1.10353909e-01,
          1.25748649e-01, 1.53035372e-01, 1.10535972e-01, 1.25640392e-01,
          0., 0., 1.83403566e-01, 1.23639494e-01, 2.05738604e-01,
          2.25356504e-01, 2.22450569e-01, 1.34951193e-02, 0.,
          6.24133795e-02, 1.09244458e-01 ]
      - [ 2.52204239e-01, 1.16257675e-01, 1.27793610e-01, 1.67834178e-01,
          8.48618820e-02, 0., 9.23141912e-02, 9.76240411e-02,
          9.28500965e-02, 8.55347887e-02, 0., 1.13758408e-01, 0.,
          6.00879863e-02, 1.36203229e-01, 1.42668858e-01, 0.,
          7.51268119e-02, 8.56410637e-02, 1.86746016e-01, 1.95217580e-01,
          3.67558002e-02, 3.88615648e-03, 0., 0., 0., 0., 0.,
          3.00336123e-01, 1.77840769e-01, 6.04544058e-02, 9.95355174e-02,
          1.62987560e-01, 9.30404142e-02, 0., 0., 1.40668944e-01,
          1.39047027e-01, 2.33688846e-01, 2.88275808e-01, 4.62144474e-03,
          3.88615648e-03, 0., 0., 1.08281642e-01, 6.68847486e-02,
          9.36400369e-02, 9.89828259e-02, 1.84977084e-01, 9.15083811e-02,
          1.26628369e-01, 1.36975497e-01, 0., 0., 0., 1.77737057e-01,
          2.41403461e-01, 1.61590949e-01, 1.15580164e-01, 2.55798876e-01,
          1.26018673e-01, 0., 9.17845815e-02, 1.25257924e-01 ]
      - [ 2.63727397e-01, 2.32602507e-01, 1.99240297e-01, 0., 0., 0., 0.,
          0., 1.13905720e-01, 2.40978241e-01, 9.07845870e-02, 0., 0., 0.,
          0., 5.01941629e-02, 1.54532120e-01, 1.91337597e-02, 0.,
          4.03741673e-02, 1.32577896e-01, 7.55398571e-02, 1.87310949e-01,
          1.03684731e-01, 1.30924225e-01, 5.46650328e-02, 0.,
          5.34842797e-02, 1.23810753e-01, 2.08272755e-01, 2.12333396e-01,
          1.61199465e-01, 0., 1.62154734e-01, 1.70125723e-01,
          1.84684202e-01, 1.29018426e-01, 1.69967577e-01, 1.47261366e-01,
          1.59792840e-01, 9.37748104e-02, 2.19581887e-01, 1.03917941e-01,
